svm_type c_svc
kernel_type linear
nr_class 2
total_sv 648
rho 1.69703
label 1 -1
nr_sv 317 331
SV
1 1:-0.795841 2:-0.00374654 3:-0.96061 4:-1 5:-0.0346566 6:-0.578947 7:-1 8:0.0731831 9:-0.240919 10:-0.253814 11:1 12:0.432892 13:-0.964444 14:-0.52867 15:-0.212222 17:-0.206667 18:-0.232222 19:-1 20:-0.306667 21:1 22:1 23:0.367778 24:-0.773333 25:-0.2 26:0.662222 27:0.807778 28:-0.0111111 29:-0.70208 30:-0.515556 31:-1 32:-0.515556 33:-0.306667 34:-0.4 35:0.0611111 36:-0.294444 37:0.835587 38:0.586667 39:-0.412222 40:1 41:0.587778 42:-1 43:-0.0588889 44:-0.0526316 45:-0.646667 46:-0.149515 47:-0.171439 48:-1 49:-1 50:0.117778 51:0.31 52:0.586667 53:0.587629 54:-0.0344444 55:0.31 56:0.793333 57:1 58:1 59:-0.987778 60:-0.316667 61:-0.368421 62:-0.493661 63:-0.432596 64:0.236667 65:-0.255556 66:-0.309293 67:-0.0977778 69:0.274444 70:-0.56989 71:0.752222 72:-0.255556 73:-0.483623 74:-0.608289 75:-0.68169 76:-0.673876 77:-0.678938 78:0.532222 79:-0.0222222 80:-0.255556 81:-0.326667 82:-0.122222 83:-0.257778 84:0.125 85:1 86:-0.01 87:-0.0644444 88:0.181111 89:-0.0222222 90:-1 91:-0.529412 92:-0.122222 93:1 94:-0.368421 95:-0.0733333 96:-1 97:-0.267778 98:0.0733333 99:-0.412222 100:0.822607 101:0.701323 102:-0.6 
1 1:0.0100819 2:0.548786 3:-0.96061 4:-1 5:0.441714 6:0.0526316 7:1 8:-0.553265 9:0.548786 10:0.621637 11:-0.395715 12:0.701323 13:-0.964444 14:0.0100819 15:-0.306667 16:0.125 17:-0.304444 18:-0.304444 19:-1 20:-0.294444 21:0.208889 22:1 23:-0.515556 24:-0.773333 25:0.0666667 26:0.208889 27:-0.198889 28:-0.0833333 29:0.305964 30:-0.773333 31:-1 32:-0.404444 33:-0.964444 34:0.3 35:-0.748889 36:-1 37:-0.302326 38:-0.517778 39:-0.646667 40:-0.412222 41:0.528889 42:1 43:0.528889 44:-0.0526316 45:-0.646667 46:0.305964 47:1 48:-1 49:-0.447778 50:-0.587778 51:-1 52:1 53:0.587629 54:0.586667 55:-0.172222 56:-0.172222 57:1 58:1 59:-0.38 60:-0.122222 61:-0.0526316 62:0.759308 63:0.752515 64:0.403333 65:-0.255556 66:-0.253814 67:-1 69:-0.236667 70:0.750025 71:-0.255556 72:-0.374444 73:0.647998 74:0.5594 75:0.660362 76:0.710291 77:0.75337 78:0.403333 79:-0.604444 80:-0.255556 81:-0.27 82:-0.707778 83:-0.0222222 84:0.125 85:0.601111 86:0.601111 87:-0.0644444 88:-1 89:-0.0644444 90:-0.365556 91:-0.0588235 92:-0.267778 93:0.463333 94:0.0526316 95:0.463333 96:-1 97:-0.267778 98:-1 99:-0.235556 100:-0.121147 101:0.701323 102:-0.2 
1 1:-0.795841 2:-0.547483 3:-0.253814 4:-1 5:0.507876 6:-0.263158 7:-1 8:0.347334 9:-0.240919 10:-0.465742 11:0.701323 12:-0.173913 13:-0.306667 14:0.432892 15:0.807778 17:-0.206667 18:-0.306667 19:-1 20:0.807778 21:-0.515556 22:-1 23:-0.987778 24:-0.515556 25:0.2 26:0.662222 27:-0.964444 28:-1 29:-0.70208 30:-0.221111 31:-1 32:-0.987778 33:-0.32 34:-0.4 35:-0.852222 36:-0.646667 37:0.835587 38:0.31 39:0.235556 40:-0.294444 41:-0.412222 42:-1 43:-0.0588889 44:-0.157895 45:-0.412222 46:-0.253814 47:-0.171439 48:-1 49:-0.172222 50:-0.705556 51:1 52:-0.447778 53:-0.553265 54:0.31 55:0.586667 56:0.793333 57:0.586667 58:-1 59:-0.773333 60:0.0733333 61:-0.0526316 62:-0.538539 63:-0.477465 64:0.236667 65:-0.255556 66:-0.465742 67:-0.255556 68:-0.1 69:-0.236667 70:-0.529234 71:-0.0977778 72:-0.0977778 73:-0.41387 74:-0.481541 75:-0.474447 76:-0.377125 77:-0.416214 78:-0.255556 79:0.181111 80:0.446667 81:-0.312222 82:0.0733333 83:0.181111 85:-0.0222222 86:-0.01 87:-0.0222222 88:-0.0644444 89:-0.356667 90:-0.463333 91:-0.294118 92:-0.463333 93:-0.122222 94:0.263158 95:-0.0733333 96:-1 97:-0.122222 98:-0.267778 99:-0.294444 100:0.00108167 101:0.432892 102:-0.4 
1 1:-0.795841 2:-0.0268773 3:-0.185021 4:-1 5:-0.996219 6:-0.157895 7:-1 8:-0.718977 9:-0.240919 10:0.304854 11:-0.52615 12:-0.78765 13:1 14:-1 15:-1 16:-0.375 17:-0.206667 18:-0.126667 19:-1 20:-0.0833333 21:0.564444 22:-1 23:-0.852222 24:-1 25:0.733333 26:0.662222 27:-0.188889 28:-0.212222 29:-0.70208 30:0.717778 31:-1 32:-0.748889 33:-0.302222 34:-0.2 35:0.367778 36:-0.528889 37:0.835587 38:-0.447778 39:0.353333 40:-0.705556 41:0.528889 42:1 43:-0.0588889 44:-0.263158 45:-0.412222 46:0.103467 47:-0.171439 48:-1 49:-0.0344444 50:1 51:1 52:0.172222 53:0.593993 54:-0.172222 55:-0.724444 56:0.793333 57:0.586667 58:-1 59:-0.19 60:-0.463333 61:-0.473684 62:-0.619843 63:-0.639437 64:0.236667 65:0.116667 66:0.0130374 67:-0.388889 68:-0.3 69:0.752222 70:-0.634095 71:-0.236667 72:-0.236667 73:-0.59725 74:-0.630419 75:-0.577062 76:-0.506086 77:-0.375377 78:-0.155556 79:-0.27 80:0.403333 81:-0.257778 82:-0.365556 83:-0.312222 84:-0.375 85:-0.398889 86:-0.01 87:0.517778 88:-0.752222 89:0.457778 90:-0.316667 91:0.176471 92:0.414444 93:-0.365556 94:0.263158 95:-0.0733333 96:-1 97:0.414444 98:-0.755556 99:-0.587778 100:0.0108167 101:0.815375 102:-0.4 
1 1:-1 2:-1 3:-0.70208 4:-1 5:-0.52615 6:-0.263158 7:1 8:0.693013 9:-0.0268773 10:1 11:0.815375 12:0.441714 13:-0.206667 14:0.507876 15:-0.302222 16:-0.25 17:-0.126667 18:-1 19:-1 20:-0.0111111 21:-0.852222 22:-1 23:0.717778 24:0.662222 25:0.0666667 26:0.564444 27:1 28:-0.188889 29:0.103467 30:-0.748889 31:-1 32:0.0611111 33:-0.0833333 34:-0.6 35:-0.19 36:-0.412222 37:-0.400757 38:-1 39:-0.587778 40:0.353333 41:-0.705556 42:1 43:0.528889 44:-0.157895 45:-0.0588889 46:0.0130374 47:-0.00776378 48:-1 49:1 50:-0.528889 51:0.586667 52:-0.447778 53:-0.171439 54:0.172222 55:-0.172222 56:-0.724444 57:0.793333 58:-1 59:-1 60:0.414444 61:0.368421 62:-0.639364 63:-0.589537 64:-0.155556 65:0.236667 66:-0.481831 67:0.116667 68:-0.5 69:-0.388889 70:-0.619805 71:0.403333 72:0.274444 73:-0.638294 74:-0.577105 75:-0.506036 76:-0.375314 77:-0.294307 78:-0.236667 79:-0.326667 80:-0.236667 81:-0.752222 82:-1 83:0.457778 84:-0.125 85:-0.312222 86:-0.398889 87:-0.01 88:0.517778 89:-0.27 90:-0.755556 91:-0.529412 92:-0.365556 93:-0.463333 94:0.473684 95:-0.365556 96:-1 97:-0.0733333 98:0.414444 99:0.117778 100:-0.0638183 101:-0.795841 102:-0.3 
1 1:0.507876 2:0.190422 3:0.103467 4:-1 5:0.815375 6:-0.684211 7:1 8:0.542319 9:-1 10:-0.465742 11:-0.795841 12:-0.0346566 13:-0.126667 14:-0.78765 15:-0.0833333 16:-0.125 17:-1 18:-0.302222 19:-1 20:0.807778 21:0.717778 22:-1 23:-0.748889 24:0.564444 25:-0.733333 26:-0.852222 27:-0.206667 28:1 29:0.0130374 30:0.0611111 31:-1 32:-0.987778 33:-0.0111111 34:0.5 35:-1 36:-0.0588889 37:0.0108167 38:0.31 39:0.117778 40:-0.587778 41:0.353333 42:1 43:-0.705556 44:-0.157895 45:0.528889 46:-0.481831 47:-0.718977 48:-1 49:0.586667 50:-0.412222 51:0.793333 52:-1 53:-0.00776378 54:-0.447778 55:0.172222 56:-0.172222 57:-0.724444 58:1 59:0.662222 60:-0.365556 61:-0.157895 62:-0.589455 63:-0.630382 64:-0.236667 65:-0.155556 66:0.304854 67:0.236667 68:0.3 69:0.116667 70:-0.639328 71:-0.236667 72:-0.0977778 73:-0.584715 74:-0.506086 75:-0.375252 76:-0.294236 77:-0.248441 78:0.403333 79:0.181111 80:0.274444 81:0.517778 82:0.0733333 83:-0.27 84:-0.375 85:0.457778 86:-0.312222 87:-0.398889 88:-0.01 89:-0.326667 90:0.414444 91:0.411765 92:-1 93:0.414444 94:-0.0526316 95:-0.463333 96:-1 97:-0.365556 98:-0.0733333 99:-0.294444 100:0.0594916 101:-1 102:-0.3 
1 1:-0.395715 2:0.451051 3:-0.70208 4:-1 5:-0.934468 6:-0.684211 7:1 8:-0.171439 9:0.72862 10:1 11:-0.795841 12:0.507876 13:-0.206667 14:-0.571519 15:-0.206667 16:-0.25 17:-0.198889 18:-0.291111 19:-1 20:-0.0111111 21:0.374444 22:-1 23:0.662222 24:0.662222 25:-0.866667 26:-0.38 27:-0.206667 28:-0.206667 29:0.761997 30:-0.852222 31:-1 32:0.0611111 33:-1 34:-0.2 35:0.724444 36:-0.0588889 37:0.716063 38:-1 39:-0.705556 40:-0.0588889 41:-0.00111111 42:1 43:-1 44:-0.368421 45:-0.0588889 46:-1 47:0.55021 48:-1 49:0.172222 50:0.764444 51:0.793333 52:-0.172222 53:-0.171439 54:0.793333 55:0.724444 56:-1 57:0.793333 58:-1 59:0.662222 60:-0.0733333 61:-0.684211 62:-0.853894 63:-0.850704 64:-1 65:0.236667 66:-0.70208 67:0.236667 68:0.2 69:1 70:-0.854081 71:0.236667 72:0.274444 73:-0.870805 74:-0.818529 75:-0.776459 76:-0.739865 77:-0.680748 78:0.122222 79:-0.326667 80:-0.236667 81:-0.01 82:-1 83:-0.01 84:-0.375 85:0.0966667 86:-1 87:-0.01 88:-0.01 89:-0.312222 90:-0.0733333 91:0.176471 92:-0.463333 93:0.0733333 94:-0.684211 95:-1 96:-1 97:-0.0733333 98:-0.0733333 99:0.117778 100:0.835587 101:-0.795841 102:-0.1 
1 1:-0.795841 2:-0.216485 3:-0.70208 4:-1 5:0.507876 6:-0.0526316 7:-1 8:0.0250732 9:-0.240919 10:-0.253814 11:-0.297417 12:-0.795841 13:-0.206667 14:0.701323 15:-0.188889 16:-0.5 17:-0.206667 18:-0.964444 19:-1 20:-0.306667 21:-0.773333 22:-1 23:-0.19 24:0.662222 25:0.733333 26:0.662222 27:-0.294444 28:-1 29:-0.70208 30:0.662222 31:-1 32:-0.515556 33:-0.206667 34:-0.1 35:-0.852222 36:-0.235556 37:0.835587 38:0.586667 39:-0.0588889 40:-0.528889 41:-0.646667 42:-1 43:-0.0588889 44:-0.578947 45:-0.0588889 46:-0.96061 47:-0.171439 48:-1 49:-0.172222 50:-0.705556 51:-0.517778 52:0.793333 53:-0.171439 54:1 55:1 56:0.793333 57:0.793333 58:-1 59:-0.404444 60:-0.755556 61:0.0526316 62:0.147716 63:-0.00925553 64:0.236667 65:0.236667 66:-0.876838 67:-0.374444 68:-0.6 69:-0.236667 70:0.186274 71:-0.388889 72:-0.255556 73:-0.104933 74:-0.0856051 75:0.00643863 76:-0.157831 77:-0.11889 78:-0.255556 79:-0.0222222 80:0.236667 81:-0.312222 82:-0.122222 83:-0.752222 84:-0.25 85:-0.0644444 86:-0.01 87:-0.01 88:-0.604444 89:-0.01 90:-0.463333 91:0.0588235 92:-0.0733333 93:-0.267778 94:0.473684 95:-0.0733333 96:-1 97:-0.0733333 98:-0.707778 99:-0.412222 100:1 101:-0.795841 102:-0.7 
1 1:0.507876 2:0.451051 3:-0.309293 4:-1 5:-0.78765 6:-0.473684 7:1 8:0.774978 9:-1 10:-0.96061 11:-0.297417 12:-1 13:-0.212222 14:-0.571519 15:-0.32 16:0.375 17:-1 18:-0.291111 19:1 20:-0.964444 21:0.374444 22:-1 23:-0.221111 24:0.367778 25:-0.333333 26:-0.852222 27:-0.294444 28:-0.302222 29:0.0130374 30:0.564444 31:-1 32:-0.773333 33:-0.126667 34:-0.2 35:0.717778 36:-0.235556 37:0.0108167 38:1 39:0.528889 40:0.235556 41:-0.00111111 42:1 43:-0.705556 44:0.157895 45:1 46:-1 47:-0.718977 48:-1 49:0.172222 50:0.353333 51:-0.517778 52:-0.724444 53:0.0731831 54:-0.447778 55:0.724444 56:-0.172222 57:-0.0344444 58:-1 59:-0.404444 60:-0.463333 61:-0.578947 62:-0.913665 63:-0.918712 64:-0.236667 65:0.752222 66:0.0263523 67:-0.374444 68:0.1 69:0.403333 70:-0.903995 71:0.446667 72:-0.255556 73:-0.930449 74:-0.919324 75:-0.921127 76:-0.89659 77:-0.909073 78:0.122222 79:-0.0644444 80:-0.155556 81:0.457778 82:-0.267778 83:-0.356667 84:0.125 85:0.0966667 86:-0.312222 87:-0.257778 88:-0.604444 89:-0.398889 90:0.414444 91:0.176471 92:-0.365556 93:0.0733333 94:-0.263158 95:-0.463333 96:1 97:-0.316667 98:-0.707778 99:-0.646667 100:0.641969 101:-0.996219 102:0.7 
1 1:0.441714 2:0.548786 3:-0.457975 4:1 5:-0.78765 6:-0.157895 7:-1 8:-0.171439 9:0.360156 10:-0.96061 11:-0.173913 12:0.432892 13:-0.206667 14:0.0100819 15:-0.206667 16:0.25 17:-0.0833333 18:-0.304444 19:1 20:-0.964444 21:0.208889 22:1 23:0.662222 24:0.724444 25:0.0666667 26:-0.748889 27:-0.32 28:-0.302222 29:0.304854 30:-0.515556 31:1 32:-0.773333 33:-0.306667 34:-0.1 35:0.717778 36:0.235556 37:0.0594916 38:1 39:-0.412222 40:-0.0588889 41:0.528889 42:-1 43:-0.587778 44:0.0526316 45:0.764444 46:0.305964 47:0.542319 48:1 49:0.172222 50:0.353333 51:-0.447778 52:0.586667 53:0.754105 54:0.793333 55:-0.172222 56:-0.447778 57:0.172222 58:-1 59:-0.221111 60:-0.0733333 61:0.263158 62:-0.942242 63:-0.941851 64:-0.236667 65:1 66:-0.70208 67:0.446667 68:-0.1 69:0.403333 70:-0.922109 71:0.236667 72:-0.255556 73:-0.964214 74:-0.95091 75:-0.958954 76:-0.967005 77:-0.970428 78:0.403333 79:-0.0644444 80:-0.255556 81:0.457778 82:-0.267778 83:-0.01 84:0.125 85:0.601111 86:-0.27 87:-0.01 88:-0.356667 89:-0.0222222 90:0.414444 91:-0.0588235 92:-0.122222 93:0.463333 94:-0.0526316 95:-0.365556 96:-1 97:-0.0733333 98:-0.463333 99:-0.646667 100:0.835587 101:-0.934468 102:0.3 
1 1:0.0100819 2:-0.240919 3:0.304854 4:1 5:-0.173913 6:-0.157895 7:-1 8:-0.553265 9:0.548786 10:0.0263523 11:-0.934468 12:0.701323 13:-0.0833333 14:-0.795841 15:-0.306667 16:0.5 17:-0.304444 18:-0.206667 19:1 20:-0.32 21:0.662222 22:-1 23:-0.515556 24:-0.748889 25:-0.2 26:0.208889 27:-0.206667 28:-0.32 29:0.305964 30:-0.773333 31:1 32:-0.221111 33:-0.964444 34:-0.1 35:-0.221111 36:0.764444 37:-0.302326 38:-0.447778 39:-0.646667 40:-0.412222 41:-0.0588889 42:-1 43:0.528889 44:-0.0526316 45:-0.587778 46:-0.70208 47:1 48:1 49:-0.447778 50:0.235556 51:0.172222 52:1 53:0.542319 54:0.586667 55:0.793333 56:-0.172222 57:-0.447778 58:-1 59:0.724444 60:-0.122222 61:-0.578947 62:-0.941839 63:-0.954728 64:0.403333 65:-0.236667 66:-0.253814 67:1 68:0.2 69:0.446667 70:-0.942236 71:-0.255556 72:0.446667 73:-0.960372 74:-0.958958 75:-0.967002 76:-0.970426 77:-0.966204 78:0.236667 79:-0.356667 80:-0.255556 81:-0.356667 82:-0.463333 83:-0.0222222 84:0.125 85:-0.01 86:0.601111 87:-0.27 88:-0.01 89:-0.0644444 90:-0.463333 91:0.411765 92:-0.267778 93:-0.0733333 94:-0.157895 95:0.463333 96:1 97:-0.365556 98:-0.0733333 99:0.235556 100:-0.121147 101:0.441714 102:-0.1 
1 1:0.815375 2:-0.216485 3:-0.876838 4:-1 5:-0.0346566 6:-0.684211 7:1 8:0.347334 9:1 10:-0.309293 11:-0.52615 12:0.507876 13:-0.188889 14:0.701323 15:0.807778 16:0.25 17:1 18:-0.964444 19:-1 20:-0.212222 21:-0.773333 22:1 23:-0.987778 24:-0.19 25:-0.6 26:-1 27:-0.188889 28:-0.0111111 29:-0.185021 30:-0.852222 31:-1 32:0.367778 33:-1 34:-0.5 35:0.0611111 36:-0.528889 37:0.388859 38:-0.0344444 39:-0.705556 40:-0.294444 41:-0.646667 42:-1 43:-0.412222 44:-0.0526316 45:-0.528889 46:-0.96061 47:0.593993 48:-1 49:-1 50:0.117778 51:1 52:-0.172222 53:0.0250732 54:0.31 55:1 56:0.586667 57:1 58:1 59:-0.19 60:0.0733333 61:-0.263158 62:-0.847253 63:-0.834809 64:0.116667 65:-0.388889 66:-0.465742 67:-0.388889 68:-0.1 69:0.274444 70:-0.86354 71:-0.0977778 72:0.752222 73:-0.86393 74:-0.866412 75:-0.902414 76:-0.922543 77:-0.93623 78:-0.255556 79:-0.257778 80:-0.236667 81:-0.326667 82:-0.316667 83:0.181111 84:-0.25 85:-0.0644444 86:0.517778 87:-0.752222 88:-0.752222 89:-0.312222 90:-1 91:-0.411765 92:-0.463333 93:-0.267778 94:-0.473684 95:0.414444 96:-1 97:-0.755556 98:-0.755556 99:1 100:0.00108167 101:-0.52615 102:0.2 
1 1:-0.795841 2:0.00863333 3:-0.253814 4:-1 5:-0.0346566 6:-0.0526316 7:-1 8:0.754105 9:-0.240919 10:0.304854 11:0.701323 12:1 13:-0.306667 14:-0.52615 15:-0.206667 17:-0.206667 18:-0.188889 19:-1 20:-0.0833333 21:-0.19 22:-1 23:0.724444 24:-0.515556 25:0.6 26:0.662222 27:-0.964444 28:-0.0111111 29:-0.70208 30:-0.987778 31:-1 32:-0.748889 33:0.807778 34:-0.4 35:0.0611111 36:-0.646667 37:0.835587 38:-0.447778 39:-0.294444 40:0.764444 41:-0.528889 42:-1 43:-0.0588889 44:-0.0526316 45:-0.412222 46:-0.876838 47:-0.171439 48:-1 49:-1 50:0.117778 51:1 52:0.31 53:-0.553265 54:0.172222 55:1 56:0.793333 57:0.586667 58:-1 59:-0.773333 60:-0.0733333 61:-0.0526316 62:-0.167841 63:-0.193964 64:0.236667 65:-0.255556 66:-0.457975 67:-0.255556 68:-0.3 69:0.274444 70:-0.174197 71:1 72:-0.236667 73:-0.229681 74:-0.158032 75:-0.165594 76:-0.100895 77:-0.0504929 78:-0.388889 79:-0.27 80:-0.0977778 81:-0.326667 82:-0.365556 83:-0.01 85:-0.752222 86:-0.01 87:-0.0222222 88:-0.0644444 89:0.181111 90:-1 91:0.0588235 92:0.0733333 93:-0.755556 94:0.0526316 95:-0.0733333 96:-1 97:-0.122222 98:-0.267778 99:-0.587778 100:0.36344 101:0.432892 102:-0.2 
1 1:0.441714 2:0.190422 3:0.305964 4:-1 5:0.507876 6:-0.473684 7:-1 8:0.693013 9:0.360156 10:1 11:-0.934468 12:-0.297417 13:-0.304444 14:-0.78765 15:-0.302222 16:0.125 17:-0.0833333 18:-0.302222 19:-1 20:-0.0111111 21:0.717778 22:-1 23:0.717778 24:0.208889 25:-0.466667 26:-0.748889 27:-0.206667 28:-1 29:0.304854 30:-0.404444 31:-1 32:0.0611111 33:-0.294444 34:0.8 35:-0.852222 36:0.764444 37:0.0594916 38:-1 39:-0.235556 40:0.353333 41:0.353333 42:-1 43:-0.587778 44:0.157895 45:0.528889 46:-0.481831 47:0.542319 48:-1 49:-0.172222 50:-0.705556 51:0.172222 52:-0.517778 53:1 54:0.172222 55:0.172222 56:-0.447778 57:-0.172222 58:-1 59:0.724444 60:0.414444 61:-0.368421 62:-0.946468 63:-0.95171 64:-0.236667 65:0.403333 66:-0.481831 67:1 68:0.3 69:-0.236667 70:-0.938412 71:0.403333 72:0.274444 73:-0.968055 74:-0.956544 75:-0.948692 76:-0.949904 77:-0.944679 78:0.403333 79:-0.326667 80:-0.374444 81:-0.312222 82:-1 83:0.457778 84:0.125 85:0.457778 86:-0.27 87:0.601111 88:-0.01 89:-0.604444 90:-0.463333 91:0.294118 92:-0.707778 93:0.414444 94:-0.473684 95:-0.365556 96:-1 97:0.463333 98:-0.0733333 99:0.117778 100:-0.0638183 101:0.0100819 102:-0.6 
1 1:-0.795841 2:-0.806157 3:0.0130374 4:-1 5:-0.996219 6:-0.263158 7:-1 8:0.587629 9:-0.240919 10:-0.70208 11:-0.78765 12:1 13:-1 14:-0.297417 15:-0.964444 16:-0.25 17:-0.206667 18:-0.294444 19:-1 20:-0.206667 21:-0.404444 22:-1 23:-0.773333 24:-0.852222 25:0.6 26:0.662222 27:-0.302222 28:-0.212222 29:-0.70208 30:-0.987778 31:-1 32:0.662222 33:0.807778 34:-0.3 35:0.367778 36:0.353333 37:0.835587 38:0.793333 39:-0.294444 40:-0.646667 41:-0.235556 42:-1 43:-0.0588889 44:-0.157895 45:-0.705556 46:0.621637 47:-0.171439 48:-1 49:-0.0344444 50:1 51:0.172222 52:0.31 53:-0.718977 54:1 55:-0.517778 56:0.793333 57:-0.172222 58:-1 59:0.717778 60:-0.267778 61:0.0526316 62:-0.618434 63:-0.625956 64:0.236667 65:-0.236667 66:-0.96061 67:0.403333 68:-0.2 69:0.752222 70:-0.627654 71:-0.255556 72:0.236667 73:-0.687222 74:-0.648325 75:-0.632394 76:-0.604265 77:-0.653591 78:-0.374444 79:-0.01 80:-0.0977778 81:-0.257778 82:-0.0733333 83:-0.0644444 85:-0.604444 86:-0.01 87:-0.312222 88:0.457778 89:0.181111 90:-0.316667 91:0.176471 92:0.0733333 93:-0.707778 94:0.157895 95:-0.0733333 96:-1 97:-0.463333 98:0.414444 99:-0.0588889 100:0.212006 101:0.507876 102:-0.2 
0.9317075511805046 1:-0.78765 2:-0.216485 3:-0.309293 4:-1 5:0.701323 6:0.894737 7:-1 8:0.776505 9:0.190422 10:-0.309293 11:0.432892 12:1 13:-0.212222 14:0.701323 15:-0.291111 16:-0.375 17:-0.302222 18:-0.964444 19:-1 20:-0.212222 21:-0.773333 22:-1 23:0.374444 24:0.367778 25:-0.2 26:0.717778 27:-0.306667 28:-0.964444 29:-0.481831 30:-0.987778 31:-1 32:0.367778 33:0.807778 34:-0.4 35:-0.773333 36:-0.412222 37:-0.0638183 38:-0.0344444 39:-0.294444 40:-0.00111111 41:-0.646667 42:-1 43:0.353333 44:-0.368421 45:1 46:-0.96061 47:0.693013 48:-1 49:1 50:-0.646667 51:0.586667 52:0.31 53:0.0731831 54:0.724444 55:1 56:0.172222 57:-0.0344444 58:-1 59:-0.515556 60:0.0733333 61:-0.0526316 62:-0.320789 63:-0.223139 64:0.403333 65:0.752222 66:-1 67:-0.255556 68:-0.5 69:-0.255556 70:-0.290732 71:0.122222 72:0.752222 73:-0.258997 74:-0.373101 75:-0.305835 76:-0.340911 77:-0.269765 78:-0.255556 79:-0.257778 80:-0.0977778 81:-0.0644444 82:-0.316667 83:0.0966667 84:-0.375 85:-0.0644444 86:0.457778 87:-0.257778 88:-0.0222222 89:0.181111 90:-0.267778 91:0.0588235 92:0.0733333 93:-0.267778 94:-0.263158 95:0.414444 96:-1 97:-0.316667 98:-0.122222 99:1 100:-0.392645 101:-0.996219 102:-0.3 
1 1:-0.571519 2:0.593093 3:-0.96061 4:-1 5:-0.996219 6:-0.473684 7:-1 8:0.0731831 9:0.451051 10:-0.96061 11:-0.78765 12:1 13:-0.964444 14:1 15:-0.212222 16:-0.125 17:-0.291111 18:0.807778 19:-1 20:-0.964444 21:-0.987778 22:-1 23:0.367778 24:-0.773333 25:-0.333333 26:0.374444 27:-0.302222 28:-0.212222 29:-1 30:-0.987778 31:-1 32:-0.773333 33:0.807778 34:-0.5 35:0.367778 36:0.353333 37:-0.392645 38:1 39:-0.294444 40:1 41:-0.294444 42:-1 43:-0.00111111 44:0.473684 45:-0.646667 46:-0.465742 47:0.776505 48:-1 49:-0.0344444 50:1 51:0.172222 52:0.31 53:0.587629 54:-0.0344444 55:0.31 56:0.724444 57:1 58:-1 59:0.717778 60:-0.316667 61:-0.263158 62:-0.252767 63:-0.373038 64:0.122222 65:-0.255556 66:-0.309293 67:0.403333 68:-0.2 69:0.752222 70:-0.222904 71:0.752222 72:-0.255556 73:-0.312171 74:-0.340911 75:-0.269618 76:-0.405694 77:-0.358479 78:-0.0977778 79:-0.0644444 80:-0.0977778 81:-0.257778 82:-0.267778 83:-0.257778 84:-0.125 85:0.181111 86:0.0966667 87:-0.0644444 88:0.457778 89:0.181111 90:-0.316667 91:-0.176471 92:0.0733333 93:0.0733333 94:-0.263158 95:0.0733333 96:-1 97:-0.267778 98:0.414444 99:-0.646667 100:0.822607 101:0.701323 102:0.1 
1 1:-0.78765 2:-0.806157 3:-0.70208 4:-1 5:-0.934468 6:0.157895 7:-1 8:0.0731831 9:0.190422 10:-0.253814 11:0.701323 12:-0.395715 13:-0.206667 14:-0.297417 15:-0.212222 16:0.125 17:-0.302222 18:-0.294444 19:-1 20:-0.306667 21:-0.404444 22:-1 23:0.367778 24:0.662222 25:0.333333 26:0.717778 27:-0.964444 28:-0.206667 29:-0.481831 30:-0.38 31:-1 32:-0.515556 33:-0.198889 34:-0.3 35:0.724444 36:-0.646667 37:-0.0638183 38:0.586667 39:-1 40:1 41:-0.235556 42:-1 43:0.353333 44:0.0526316 45:-0.0588889 46:0.621637 47:0.693013 48:-1 49:0.172222 50:0.764444 51:1 52:-1 53:-0.171439 54:-0.0344444 55:-0.517778 56:0.172222 57:0.793333 58:-1 59:-0.773333 60:-0.316667 61:0.263158 62:-0.163212 63:0.0104628 64:0.403333 65:0.236667 66:-0.309293 67:-0.255556 68:-0.1 69:1 70:-0.0435745 71:0.752222 72:-0.255556 73:-0.0155681 74:-0.149985 75:-0.083501 76:-0.139926 77:-0.198149 78:-0.374444 79:-0.0222222 80:-1 81:-0.01 82:-0.122222 83:-0.257778 84:0.25 85:-0.604444 86:0.457778 87:-0.01 88:-0.0644444 89:-1 90:-0.0733333 91:-0.0588235 92:-1 93:-0.707778 94:-0.0526316 95:0.414444 96:-1 97:-0.0733333 98:-0.267778 99:-0.412222 100:0.822607 101:-0.795841 102:0.2 
1 1:-0.795841 2:0.322039 3:0.621637 4:-1 5:0.815375 6:-0.0526316 7:-1 8:-0.553265 9:-0.240919 10:-0.876838 11:-0.52615 12:1 13:-0.294444 14:-0.934468 15:-0.306667 17:-0.206667 18:-0.206667 19:-1 20:-0.188889 21:0.724444 22:-1 23:-0.515556 24:-0.404444 25:0.6 26:0.662222 27:-0.188889 28:1 29:-0.70208 30:-0.987778 31:-1 32:-0.19 33:0.807778 34:-0.3 35:-1 36:-0.528889 37:0.835587 38:1 39:-0.294444 40:-0.412222 41:0.764444 42:-1 43:-0.0588889 44:-0.157895 45:-0.235556 46:-0.457975 47:-0.171439 48:-1 49:0.586667 50:-0.412222 51:1 52:0.31 53:-1 54:0.586667 55:0.172222 56:0.793333 57:-0.517778 58:-1 59:-0.19 60:-0.122222 61:-0.473684 62:-0.220366 63:-0.23159 64:0.236667 65:-0.374444 66:-0.253814 67:-0.388889 68:0.1 69:0.116667 70:-0.130522 71:-0.255556 72:-0.388889 73:-0.209462 74:-0.217181 75:-0.243863 76:-0.246555 77:-0.258902 78:1 79:-0.752222 80:-0.0977778 81:0.517778 82:-0.755556 83:-0.0222222 85:-0.01 86:-0.01 87:-0.604444 88:-0.752222 89:0.181111 90:0.414444 91:0.411765 92:0.0733333 93:-0.0733333 94:-0.0526316 95:-0.0733333 96:-1 97:-0.707778 98:-0.755556 99:-0.528889 100:-0.121147 101:-0.297417 102:-0.6 
1 1:-0.78765 2:0.548786 3:-0.309293 4:-1 5:-0.297417 6:0.894737 7:-1 8:-0.171439 9:0.190422 10:-1 11:0.815375 12:1 13:-0.212222 14:0.0100819 15:-0.206667 16:-0.5 17:-0.302222 18:-0.304444 19:-1 20:-0.291111 21:0.208889 22:-1 23:0.662222 24:0.367778 25:-0.0666667 26:0.717778 27:1 28:-0.294444 29:-0.481831 30:-0.987778 31:-1 32:0.374444 33:0.807778 34:0.4 35:-0.404444 36:-0.412222 37:-0.0638183 38:0.724444 39:-0.294444 40:-0.0588889 41:0.528889 42:-1 43:0.353333 44:-0.684211 45:1 46:0.305964 47:0.693013 48:-1 49:-0.517778 50:-0.235556 51:0.586667 52:0.31 53:0.0731831 54:0.793333 55:-0.172222 56:0.172222 57:-0.0344444 58:-1 59:-1 60:-0.0733333 61:-0.473684 62:-0.877843 63:-0.88994 64:0.403333 65:0.752222 66:-0.70208 67:0.116667 68:-0.6 69:-0.374444 70:-0.861326 71:0.236667 72:0.122222 73:-0.915285 74:-0.919928 75:-0.922334 76:-0.921336 77:-0.916918 78:0.403333 79:0.0966667 80:-0.0977778 81:-0.604444 82:0.0733333 83:-0.01 84:-0.5 85:0.601111 86:0.457778 87:-0.257778 88:0.517778 89:0.181111 90:-0.707778 91:-0.0588235 92:0.0733333 93:0.463333 94:0.0526316 95:0.414444 96:-1 97:-0.316667 98:0.414444 99:-0.00111111 100:0.835587 101:-0.996219 102:-0.4 
1 1:0.507876 2:-0.354944 3:-0.457975 4:1 5:-0.795841 6:-0.368421 7:-1 8:-1 9:-1 10:1 11:0.701323 12:0.441714 13:-0.206667 14:-0.996219 15:-0.294444 16:0.375 17:-1 18:-0.212222 19:1 20:-0.0111111 21:0.367778 22:-1 23:-0.404444 24:0.724444 25:-0.333333 26:-0.852222 27:-0.964444 28:-0.206667 29:0.0130374 30:-0.748889 31:1 32:0.0611111 33:-0.0833333 34:-0.5 35:0.662222 36:-0.646667 37:0.0108167 38:-1 39:-0.587778 40:-0.235556 41:1 42:-1 43:-0.705556 44:-0.157895 45:0.764444 46:-0.309293 47:-0.718977 48:1 49:0.793333 50:-0.0588889 51:1 52:-0.447778 53:0.754105 54:-0.517778 55:-0.0344444 56:-0.172222 57:0.172222 58:-1 59:-0.773333 60:-0.707778 61:-0.684211 62:-0.916885 63:-0.918109 64:-0.236667 65:1 66:0.621637 67:-0.255556 68:-0.2 69:0.236667 70:-0.907618 71:-0.374444 72:0.274444 73:-0.927416 74:-0.907856 75:-0.90161 76:-0.885726 77:-0.846309 78:0.752222 79:-0.326667 80:-0.236667 81:-0.01 82:-1 83:-0.604444 84:-0.125 85:-0.257778 86:-0.312222 87:-0.01 88:-0.0644444 89:-0.27 90:-0.0733333 91:-0.176471 92:-0.365556 93:-0.316667 94:-0.0526316 95:-0.463333 96:1 97:-0.0733333 98:-0.267778 99:0.117778 100:0.51325 101:-0.934468 102:0.3 
1 1:0.507876 2:-0.216485 3:-0.253814 4:-1 5:-0.78765 6:-0.578947 7:1 8:0.754105 9:-1 10:0.0130374 11:-0.795841 12:-0.934468 13:-0.306667 14:0.701323 15:-0.206667 16:0.625 17:-1 18:-0.964444 19:-1 20:-1 21:-0.773333 22:-1 23:0.724444 24:-0.515556 25:-0.6 26:-0.852222 27:-0.206667 28:-0.302222 29:0.0130374 30:0.724444 31:-1 32:-0.852222 33:-0.206667 34:-0.6 35:0.717778 36:-0.0588889 37:0.0108167 38:-0.172222 39:0.764444 40:0.764444 41:-0.646667 42:1 43:-0.705556 44:-0.0526316 45:-0.412222 46:-0.96061 47:-0.718977 48:-1 49:0.172222 50:0.353333 51:0.793333 52:0.172222 53:-0.553265 54:0.172222 55:1 56:-0.172222 57:0.586667 58:-1 59:0.662222 60:-0.0733333 61:0.0526316 62:-0.860334 63:-0.81006 64:-0.236667 65:-0.255556 66:-0.457975 67:0.236667 69:0.403333 70:-0.864949 71:1 72:-0.236667 73:-0.697533 74:-0.530631 75:-0.44829 76:-0.391812 77:-0.131764 78:-0.255556 79:-0.312222 80:1 81:0.457778 82:-0.463333 83:-0.01 84:0.25 85:-0.0644444 86:-0.312222 87:-0.0222222 88:-0.01 89:-0.01 90:0.414444 91:-0.411765 92:-0.0733333 93:-0.267778 94:-0.473684 95:-0.463333 96:-1 97:-0.122222 98:-0.0733333 99:-0.705556 100:0.36344 101:0.432892 102:1 
1 1:-0.795841 2:-0.547483 3:-0.253814 4:-1 5:-0.297417 6:-0.0526316 7:-1 8:0.0250732 9:-0.240919 10:0.761997 11:0.432892 12:1 13:-0.306667 14:0.432892 15:-0.188889 16:-0.125 17:-0.206667 18:-0.306667 19:-1 20:-0.198889 21:-0.515556 22:-1 23:-0.19 24:-0.515556 25:0.6 26:0.662222 27:-0.306667 28:-0.294444 29:-0.70208 30:-0.987778 31:-1 32:-0.38 33:0.807778 34:-0.3 35:-0.404444 36:-0.412222 37:0.835587 38:-1 39:-0.294444 40:-0.528889 41:-0.412222 42:-1 43:-0.0588889 44:-0.263158 45:-0.412222 46:-0.253814 47:-0.171439 48:-1 49:-0.517778 50:-0.235556 51:0.586667 52:0.31 53:-0.553265 54:1 55:0.586667 56:0.793333 57:0.586667 58:-1 59:-0.515556 60:-0.755556 61:0.0526316 62:-0.809016 63:-0.772636 64:0.236667 65:-0.255556 66:-0.876838 67:-0.255556 68:-0.5 69:-0.374444 70:-0.82852 71:-0.388889 72:-1 73:-0.788314 74:-0.748114 75:-0.690543 76:-0.630419 77:-0.573124 78:-0.255556 79:-1 80:-0.0977778 81:-0.604444 82:-1 83:-0.752222 84:-0.25 85:-0.0222222 86:-0.01 87:-0.0222222 88:-0.0222222 89:0.181111 90:-0.707778 91:-0.0588235 92:0.0733333 93:-0.122222 94:0.157895 95:-0.0733333 96:-1 97:-0.122222 98:-0.122222 99:-1 100:1 101:0.432892 102:-0.3 
1 1:-0.52615 2:0.322039 3:0.621637 4:-1 5:-0.996219 6:-0.0526316 7:-1 8:-1 9:0.00863333 10:-0.876838 11:-0.934468 12:0.701323 13:-0.294444 14:-0.934468 15:-0.294444 16:0.125 17:-0.188889 18:-0.206667 19:-1 20:-0.188889 21:0.724444 22:-1 23:-0.404444 24:-0.404444 25:-0.0666667 26:-0.19 27:-0.206667 28:-0.212222 29:-0.876838 30:-0.773333 31:-1 32:-0.19 33:-0.964444 34:0.5 35:0.367778 36:0.764444 37:1 38:1 39:-0.646667 40:-0.235556 41:0.764444 42:-1 43:-0.528889 44:-0.157895 45:-0.235556 46:-0.457975 47:0.0250732 48:-1 49:-0.0344444 50:1 51:0.172222 52:1 53:-1 54:-0.517778 55:0.172222 56:1 57:-0.517778 58:-1 59:0.724444 60:-0.707778 61:-0.157895 62:0.541155 63:0.512475 64:-0.388889 65:-0.374444 66:0.621637 67:1 69:0.752222 70:0.588809 71:-0.374444 72:-0.388889 73:0.542459 74:0.540489 75:0.591751 76:0.606478 77:0.664454 78:1 79:-0.752222 80:-0.255556 81:-0.257778 82:-0.755556 83:-0.604444 84:0.125 85:-0.01 86:-0.752222 87:-0.604444 88:-0.01 89:-0.0644444 90:-0.316667 91:0.176471 92:-0.267778 93:-0.0733333 94:0.157895 95:-0.755556 96:-1 97:-0.707778 98:-0.0733333 99:-0.528889 100:0.51325 101:-0.297417 102:-0.3 
1 1:-0.571519 2:0.00863333 3:0.621637 4:-1 5:-0.78765 6:-0.473684 7:-1 8:0.587629 9:0.451051 10:0.0130374 11:-0.297417 12:-0.996219 13:-0.294444 14:-0.52615 15:-0.964444 16:0.125 17:-0.291111 18:-0.188889 19:-1 20:-1 21:-0.19 22:1 23:-0.773333 24:-0.404444 25:-0.2 26:0.374444 27:-0.294444 28:-0.302222 29:-1 30:0.367778 31:-1 32:-0.852222 33:-0.212222 34:-0.4 35:0.717778 36:-0.235556 37:-0.392645 38:-0.172222 39:1 40:-0.646667 41:-0.528889 42:-1 43:-0.00111111 44:-0.157895 45:-0.235556 46:-0.876838 47:0.776505 48:-1 49:0.172222 50:0.353333 51:-0.517778 52:-0.0344444 53:-1 54:1 55:1 56:0.724444 57:-0.517778 58:1 59:-0.404444 60:-0.267778 61:0.0526316 62:-0.944657 63:-0.919718 64:0.122222 65:-0.374444 66:-0.96061 67:-0.374444 68:-0.3 69:0.403333 70:-0.960753 71:-0.255556 72:-0.236667 73:-0.910433 74:-0.899608 75:-0.890744 76:-0.896389 77:-0.891571 78:-0.388889 79:-0.312222 80:0.752222 81:0.457778 82:-0.463333 83:-0.0644444 84:0.375 85:-0.752222 86:0.0966667 87:-0.604444 88:-0.604444 89:-0.257778 90:0.414444 91:-0.294118 92:-0.316667 93:-0.755556 94:-0.0526316 95:0.0733333 96:-1 97:-0.707778 98:-0.707778 99:-0.705556 100:0.212006 101:-0.297417 102:0.8 
0.7653320416760984 1:-0.795841 2:-1 3:-0.96061 4:1 5:0.0100819 6:-0.157895 7:-1 8:-0.171439 9:-0.240919 10:0.621637 11:-0.996219 12:0.057971 13:-0.964444 14:0.507876 15:-0.206667 16:-0.25 17:-0.206667 18:-1 19:-1 20:-0.294444 21:-0.852222 22:1 23:0.662222 24:-0.773333 25:0.466667 26:0.662222 27:-0.212222 28:-0.304444 29:-0.70208 30:-0.301111 31:1 32:-0.404444 33:0.216667 34:-0.4 35:0.208889 36:1 37:0.835587 38:-0.517778 39:-0.117778 40:-0.0588889 41:-0.705556 42:-1 43:-0.0588889 44:-0.368421 45:-0.646667 46:0.0130374 47:-0.171439 48:1 49:-0.172222 50:0.528889 51:-0.0344444 52:-0.0344444 53:0.587629 54:0.793333 55:-0.172222 56:0.793333 57:1 58:1 59:0.367778 60:-0.0733333 61:0.263158 62:-0.836587 63:-0.852716 64:0.236667 65:-0.255556 66:-0.70208 67:0.752222 68:-0.4 69:0.403333 70:-0.823287 71:0.236667 72:-0.374444 73:-0.865144 74:-0.872045 75:-0.837626 76:-0.841465 77:-0.838061 78:-0.236667 79:-0.604444 80:0.426667 81:0.601111 82:-0.707778 83:-0.01 84:-0.125 85:-0.312222 86:-0.01 87:-0.0644444 88:-0.257778 89:0.153333 90:0.463333 91:-0.294118 92:0.122222 93:-0.463333 94:0.473684 95:-0.0733333 96:-1 97:-0.267778 98:-0.316667 99:-0.235556 100:0.835587 101:0.701323 102:0.5 
1 1:-0.795841 2:0.593093 3:0.621637 4:-1 5:-0.795841 6:-0.157895 7:1 8:-0.718977 9:-0.240919 10:0.305964 11:-0.934468 12:-0.395715 13:-0.294444 14:1 15:-1 16:-0.375 17:-0.206667 18:0.807778 19:1 20:-0.304444 21:-0.987778 22:-1 23:-0.852222 24:-0.404444 25:0.733333 26:0.662222 27:-0.206667 28:-0.206667 29:-0.70208 30:-0.38 31:-1 32:0.208889 33:-0.198889 34:-0.2 35:0.662222 36:0.764444 37:0.835587 38:-0.172222 39:-1 40:-0.705556 41:-0.294444 42:1 43:-0.0588889 44:-0.578947 45:-0.235556 46:-0.465742 47:-0.171439 48:-1 49:0.793333 50:-0.0588889 51:0.172222 52:-1 53:-1 54:-0.172222 55:0.31 56:0.793333 57:-0.517778 58:-1 59:0.724444 60:-0.463333 61:0.157895 62:-0.796337 63:-0.800201 64:0.236667 65:-0.374444 66:0.0130374 67:1 68:-0.5 69:0.236667 70:-0.748818 71:-0.236667 72:0.403333 73:-0.758997 74:-0.534051 75:-0.330181 76:-0.123428 77:-0.0233353 78:-0.0977778 79:0.601111 80:-1 81:-0.01 82:0.463333 83:-0.312222 84:-0.125 85:0.181111 86:-0.01 87:-0.604444 88:-0.01 89:-1 90:-0.0733333 91:-0.176471 92:-1 93:0.0733333 94:0.263158 95:-0.0733333 96:1 97:-0.707778 98:-0.0733333 99:0.528889 100:0.0108167 101:-0.297417 
1 1:-0.78765 2:0.483955 3:0.304854 4:-1 5:-0.934468 6:0.0526316 7:-1 8:-1 9:0.190422 10:0.761997 11:-0.571519 12:-0.297417 13:-0.0833333 14:-0.173913 15:-0.294444 16:0.25 17:-0.302222 18:-0.32 19:1 20:-0.198889 21:-0.221111 22:1 23:-0.404444 24:-0.748889 25:-0.0666667 26:0.717778 27:-0.291111 28:-0.206667 29:-0.481831 30:-0.404444 31:-1 32:-0.38 33:-0.294444 34:-0.3 35:0.724444 36:-0.00111111 37:-0.0638183 38:-1 39:-0.235556 40:-0.235556 41:0.235556 42:1 43:0.353333 44:0.157895 45:-0.587778 46:0.0263523 47:0.693013 48:1 49:0.172222 50:0.764444 51:0.724444 52:-0.517778 53:0.542319 54:-0.517778 55:-0.447778 56:0.172222 57:-0.447778 58:-1 59:0.374444 60:-0.707778 61:0.157895 62:0.977259 63:0.986117 64:0.403333 65:-0.236667 66:0.621637 67:0.122222 68:-0.1 69:1 70:0.976653 71:-0.374444 72:-1 73:0.958755 74:0.982497 75:0.988732 76:0.99155 77:0.992154 78:0.446667 79:-1 80:-0.374444 81:-0.01 82:-1 83:-0.604444 84:0.125 85:-0.356667 86:0.457778 87:-0.27 88:0.0966667 89:-0.604444 90:-0.0733333 91:0.176471 92:-0.707778 93:-0.463333 94:-0.157895 95:0.414444 96:-1 97:-0.365556 98:0.0733333 99:-1 100:0.51325 101:0.441714 102:-0.1 
1 1:-0.795841 2:-0.397296 3:-0.70208 4:-1 5:-0.996219 6:-0.0526316 7:1 8:-0.718977 9:-0.240919 10:-0.96061 11:-0.996219 12:-0.996219 13:-0.206667 14:-0.0346566 15:-1 16:0.125 17:-0.206667 18:-0.0111111 19:-1 20:-0.964444 21:0.0611111 22:1 23:-0.852222 24:0.662222 25:-0.0666667 26:0.662222 27:-0.212222 28:-0.212222 29:-0.70208 30:0.367778 31:-1 32:-0.773333 33:-0.212222 34:-0.1 35:0.367778 36:1 37:0.835587 38:1 39:1 40:-0.705556 41:0.117778 42:1 43:-0.0588889 44:-0.157895 45:-0.0588889 46:1 47:-0.171439 48:-1 49:-0.0344444 50:1 51:-0.0344444 52:-0.0344444 53:-0.171439 54:-0.172222 55:-1 56:0.793333 57:0.793333 58:1 59:0.367778 60:-0.463333 61:-0.263158 62:-0.464077 63:-0.465392 64:0.236667 65:0.236667 66:0.0130374 67:0.752222 68:-0.2 69:0.752222 70:-0.469055 71:-0.236667 72:-0.255556 73:-0.465629 74:-0.470878 75:-0.427565 76:-0.367669 77:-0.348019 78:0.274444 79:-0.0644444 80:0.752222 81:-0.257778 82:-0.267778 83:-0.312222 84:0.125 85:-0.326667 86:-0.01 87:-0.01 88:-0.257778 89:-0.257778 90:-0.316667 91:-0.0588235 92:-0.316667 93:-1 94:0.0526316 95:-0.0733333 96:-1 97:-0.0733333 98:-0.316667 99:-0.646667 100:0.0108167 101:-0.795841 
1 1:0.701323 2:0.00863333 3:-0.465742 4:1 5:-0.795841 6:-0.473684 7:-1 8:-0.553265 9:-0.216485 10:1 11:-0.795841 12:-0.795841 13:0.807778 14:-0.52615 15:-0.306667 16:-0.125 17:-0.964444 18:-0.188889 19:1 20:-0.0111111 21:-0.19 22:-1 23:-0.515556 24:-0.987778 25:-0.2 26:-0.773333 27:-0.206667 28:-0.206667 29:-0.96061 30:0.662222 31:1 32:0.0611111 33:-0.206667 34:-0.5 35:0.662222 36:-0.0588889 37:0.212006 38:-1 39:-0.0588889 40:-0.412222 41:-0.528889 42:-1 43:-0.646667 44:0.368421 45:-0.294444 46:-0.876838 47:0.587629 48:1 49:0.793333 50:-0.0588889 51:0.793333 52:0.793333 53:0.347334 54:0.586667 55:1 56:1 57:0.31 58:-1 59:0.662222 60:-0.122222 61:-0.473684 62:-0.921715 63:-0.932998 64:-0.255556 65:-0.0977778 66:-0.253814 67:0.236667 68:-0.3 69:0.236667 70:-0.902385 71:-0.255556 72:0.274444 73:-0.949858 74:-0.942662 75:-0.947485 76:-0.947893 77:-0.950312 78:-0.388889 79:-0.326667 80:0.236667 81:-0.01 82:-1 83:-0.0222222 85:-0.752222 86:-0.0644444 87:0.181111 88:-0.01 89:-0.01 90:-0.0733333 91:0.0588235 92:-0.0733333 93:-0.755556 94:-0.368421 95:-0.267778 96:1 97:0.0733333 98:-0.0733333 99:0.117778 100:-0.121147 101:1 
0.9865503635939993 1:0.0100819 2:0.00863333 3:-0.457975 4:1 5:-0.78765 6:0.157895 7:-1 8:0.0731831 9:0.548786 10:-0.149515 11:0.432892 12:-0.0346566 13:-0.206667 14:-0.52615 15:-0.212222 16:-0.125 17:-0.304444 18:-0.188889 19:1 20:-0.232222 21:-0.19 22:-1 23:0.367778 24:0.724444 25:0.0666667 26:0.208889 27:-0.306667 28:-0.302222 29:0.305964 30:0.0611111 31:1 32:1 33:-0.0111111 34:-0.2 35:0.717778 36:-0.412222 37:-0.302326 38:0.31 39:0.117778 40:1 41:-0.528889 42:-1 43:0.528889 44:-0.684211 45:0.764444 46:-0.876838 47:1 48:1 49:0.172222 50:0.353333 51:0.586667 52:-1 53:0.754105 54:-0.0344444 55:1 56:-0.172222 57:0.172222 58:-1 59:-0.515556 60:-0.316667 61:-0.0526316 62:-0.976655 63:-0.975855 64:0.403333 65:1 66:-0.309293 67:-0.255556 68:-0.3 69:0.403333 70:-0.971822 71:0.752222 72:0.532222 73:-0.985241 74:-0.970828 75:-0.961167 76:-0.939242 77:-0.911889 78:-0.388889 79:1 80:0.274444 81:0.457778 82:1 83:-0.257778 84:-0.25 85:-0.752222 86:0.601111 87:-0.01 88:-0.0222222 89:-0.326667 90:0.414444 91:-0.0588235 92:-1 93:-0.755556 94:-0.368421 95:0.463333 96:1 97:-0.0733333 98:-0.122222 99:0.587778 100:0.822607 101:-0.934468 102:0.7 
1 1:-0.795841 2:-0.806157 3:0.0263523 4:1 5:-0.173913 6:-0.263158 7:-1 8:0.347334 9:-0.240919 10:0.0263523 11:-0.571519 12:-0.297417 13:-0.32 14:-0.297417 15:0.807778 16:-0.625 17:-0.206667 18:-0.294444 19:1 20:-0.32 21:-0.404444 22:-1 23:-0.987778 24:-0.221111 25:0.733333 26:0.662222 27:-0.291111 28:-0.32 29:-0.70208 30:-0.404444 31:1 32:-0.221111 33:-0.294444 34:-0.2 35:-0.221111 36:-0.00111111 37:0.835587 38:-0.447778 39:-0.235556 40:-0.294444 41:-0.235556 42:-1 43:-0.0588889 44:-0.263158 45:0.235556 46:0.621637 47:-0.171439 48:1 49:-0.447778 50:0.235556 51:0.724444 52:-0.517778 53:0.774978 54:0.31 55:-0.517778 56:0.793333 57:-0.447778 58:-1 59:0.374444 60:0.0733333 61:-0.368421 62:-0.868183 63:-0.877867 64:0.236667 65:0.446667 66:-0.465742 67:0.122222 68:-0.4 69:0.446667 70:-0.860723 71:-0.0977778 72:0.446667 73:-0.891023 74:-0.874862 75:-0.856338 76:-0.835027 77:-0.809696 78:-0.374444 79:-0.356667 80:-0.374444 81:-0.356667 82:-0.463333 83:0.181111 84:-0.5 85:-0.604444 86:-0.01 87:-0.356667 88:0.0966667 89:-0.604444 90:-0.463333 91:0.529412 92:-0.707778 93:-0.707778 94:0.368421 95:-0.0733333 96:1 97:-0.463333 98:0.0733333 99:0.235556 100:0.00108167 101:-0.173913 102:0.3 
1 1:-0.795841 2:0.360156 3:-0.465742 4:-1 5:-0.934468 6:0.578947 7:-1 8:0.0250732 9:-0.240919 10:0.304854 11:-0.173913 12:0.701323 13:0.807778 14:0.441714 15:-0.188889 16:-0.375 17:-0.206667 18:-0.0833333 19:-1 20:-0.0833333 21:-0.748889 22:-1 23:-0.19 24:-0.987778 25:0.0666667 26:0.662222 27:-0.32 28:-0.206667 29:-0.70208 30:-0.773333 31:-1 32:-0.748889 33:-0.964444 34:-0.7 35:0.724444 36:0.235556 37:0.835587 38:-0.447778 39:-0.646667 40:-0.528889 41:-0.587778 42:-1 43:-0.0588889 44:-0.368421 45:-0.294444 46:0.304854 47:-0.171439 48:-1 49:0.172222 50:0.764444 51:-0.447778 52:1 53:0.347334 54:1 55:-0.447778 56:0.793333 57:0.31 58:-1 59:-0.221111 60:-0.755556 61:0.894737 62:-0.948078 63:-0.945473 64:0.236667 65:-0.0977778 66:-0.876838 67:0.446667 68:-0.3 69:1 70:-0.951494 71:-0.388889 72:-0.236667 73:-0.9537 74:-0.938034 75:-0.927565 76:-0.90343 77:-0.877892 78:-0.236667 79:-0.27 80:-0.255556 81:-0.01 82:-0.365556 83:-0.752222 84:-0.375 85:-0.27 86:-0.01 87:0.181111 88:-0.356667 89:-0.0644444 90:-0.0733333 91:-0.176471 92:-0.267778 93:-0.365556 94:0.157895 95:-0.0733333 96:-1 97:0.0733333 98:-0.463333 99:-0.587778 100:1 101:1 102:-0.2 
1 1:1 2:0.548786 3:-0.465742 4:1 5:-0.52615 6:-0.263158 7:-1 8:0.693013 9:0.593093 10:0.0130374 11:-0.395715 12:-0.934468 13:0.807778 14:0.0100819 15:-0.302222 16:0.25 17:0.807778 18:-0.304444 19:1 20:-1 21:0.208889 22:1 23:0.717778 24:-0.987778 25:-0.2 26:-0.987778 27:-0.198889 28:-0.188889 29:-0.465742 30:0.724444 31:1 32:-0.852222 33:-0.206667 34:0.4 35:-0.19 36:-1 37:0.00108167 38:-0.172222 39:0.764444 40:0.353333 41:0.528889 42:-1 43:-0.294444 44:-0.157895 45:-0.294444 46:0.305964 47:0.347334 48:1 49:1 50:-0.528889 51:-1 52:0.172222 53:0.347334 54:0.172222 55:-0.172222 56:0.31 57:0.31 58:-1 59:-0.38 60:0.414444 61:-0.368421 62:-0.934192 63:-0.942857 64:-0.0977778 65:-0.0977778 66:-0.481831 67:-1 68:0.3 69:-0.388889 70:-0.929556 71:0.403333 72:-0.236667 73:-0.963405 74:-0.962579 75:-0.973843 76:-0.978272 77:-0.982498 78:0.403333 79:-0.312222 80:1 81:-0.752222 82:-0.463333 83:0.457778 85:0.601111 86:0.181111 87:0.181111 88:-1 89:-0.01 90:-0.755556 91:-0.176471 92:-0.0733333 93:0.463333 94:-0.0526316 95:0.0733333 96:-1 97:0.0733333 98:-1 99:-0.705556 100:-0.0638183 101:1 
1 1:0.0100819 2:-0.397296 3:-0.457975 4:-1 5:0.441714 6:0.0526316 7:1 8:0.0731831 9:0.548786 10:0.621637 11:0.701323 12:-0.52867 13:-0.206667 14:-0.0346566 15:-0.212222 17:-0.304444 18:-0.0111111 19:-1 20:-0.294444 21:0.0611111 22:1 23:0.367778 24:0.724444 25:0.0666667 26:0.208889 27:-0.964444 28:-0.0833333 29:0.305964 30:1 31:-1 32:-0.404444 33:-0.232222 35:-0.748889 36:-0.646667 37:-0.302326 38:-0.517778 39:0.587778 40:1 41:0.117778 42:1 43:0.528889 44:-0.157895 45:0.764444 46:1 47:1 48:-1 49:-0.447778 50:-0.587778 51:1 52:0.31 53:0.754105 54:-0.0344444 55:-1 56:-0.172222 57:0.172222 58:1 59:-0.773333 60:-0.316667 61:0.0526316 62:-0.663715 63:-0.720926 64:0.403333 65:1 66:-0.309293 67:-0.255556 69:-0.236667 70:-0.594244 71:0.752222 72:-0.374444 73:-0.775778 74:-0.801227 75:-0.786318 76:-0.788754 77:-0.812311 78:0.274444 79:-0.604444 80:0.532222 81:-0.27 82:-0.707778 83:-0.257778 84:0.125 85:-0.326667 86:0.601111 87:-0.01 88:-0.0644444 89:1 90:-0.365556 91:0.0588235 92:1 93:-1 94:0.157895 95:0.463333 96:-1 97:-0.0733333 98:-0.267778 99:-0.235556 100:0.822607 101:-0.934468 102:-0.1 
1 1:-0.52615 2:-0.806157 3:-0.70208 4:-1 5:1 6:-0.368421 7:-1 8:-0.171439 9:0.00863333 10:-0.96061 11:-0.78765 12:-0.795841 13:-0.206667 14:-0.297417 15:-0.206667 16:0.625 17:-0.188889 18:-0.294444 19:-1 20:-0.964444 21:-0.404444 22:-1 23:0.662222 24:0.662222 25:-0.2 26:-0.19 27:-0.302222 28:0.807778 29:-0.876838 30:0.662222 31:-1 32:-0.773333 33:-0.206667 34:-0.3 35:-0.987778 36:0.353333 37:1 38:1 39:-0.0588889 40:-0.0588889 41:-0.235556 42:-1 43:-0.528889 44:-0.157895 45:-0.0588889 46:0.621637 47:0.0250732 48:-1 49:0.31 50:-0.294444 51:0.172222 52:0.793333 53:-0.171439 54:0.793333 55:-0.517778 56:1 57:0.793333 58:-1 59:0.717778 60:-0.0733333 61:-0.0526316 62:-0.861944 63:-0.870423 64:-0.388889 65:0.236667 66:-0.70208 67:0.403333 68:-0.1 69:-0.0977778 70:-0.880246 71:0.236667 72:-0.255556 73:-0.879701 74:-0.873453 75:-0.855734 76:-0.865004 77:-0.904446 78:-0.374444 79:-0.0644444 80:0.236667 81:0.181111 82:-0.267778 83:-0.01 84:0.5 85:-0.604444 86:-0.752222 87:-0.01 88:0.457778 89:-0.01 90:0.0733333 91:-0.176471 92:-0.0733333 93:-0.707778 94:-0.157895 95:-0.755556 96:-1 97:-0.0733333 98:0.414444 99:-0.646667 100:0.835587 101:-0.795841 102:-0.4 
1 1:-0.78765 2:-0.240919 3:-0.385853 4:-1 5:0.507876 6:0.789474 7:1 8:0.593993 9:0.190422 10:1 11:-0.395715 12:0.701323 13:0.216667 14:-0.795841 15:1 16:-0.5 17:-0.302222 18:-0.206667 19:-1 20:-0.0111111 21:0.662222 22:1 23:-1 24:-0.301111 25:0.0666667 26:0.717778 27:-0.198889 28:-1 29:-0.481831 30:-0.773333 31:-1 32:0.0611111 33:-0.964444 34:0.3 35:-0.852222 36:-1 37:-0.0638183 38:-1 39:-0.646667 40:-0.412222 41:-0.0588889 42:1 43:0.353333 44:-0.894737 45:-0.117778 46:-0.70208 47:0.693013 48:-1 49:-0.172222 50:-0.705556 51:-1 52:1 53:-0.214204 54:0.586667 55:0.793333 56:0.172222 57:-0.0344444 58:1 59:-0.38 60:0.414444 61:-0.789474 62:-0.96136 63:-0.954326 64:0.403333 65:0.426667 66:-0.185021 67:-1 68:-0.5 69:-0.236667 70:-0.968602 71:0.116667 72:0.274444 73:-0.963203 74:-0.948697 75:-0.944869 76:-0.938839 77:-0.937236 78:0.236667 79:-0.326667 80:-0.255556 81:-0.312222 82:-1 83:0.517778 84:-0.375 85:-0.01 86:0.457778 87:0.153333 88:-1 89:-0.0644444 90:-0.463333 91:0.882353 92:-0.267778 93:-0.0733333 94:-0.157895 95:0.414444 96:-1 97:0.122222 98:-1 99:0.117778 100:0.388859 101:0.057971 102:-0.8 
0.0931988030558529 1:-0.78765 2:0.322039 3:-0.385853 4:-1 5:-0.78765 6:1 7:-1 8:0.593993 9:0.190422 10:0.761997 11:-0.297417 12:-0.297417 13:0.216667 14:-0.934468 15:1 16:-0.75 17:-0.302222 18:-0.206667 19:-1 20:-0.198889 21:0.724444 22:-1 23:-1 24:-0.301111 25:-0.6 26:0.717778 27:-0.294444 28:-0.302222 29:-0.481831 30:-0.404444 31:-1 32:-0.38 33:-0.294444 34:-0.6 35:0.717778 36:-0.235556 37:-0.0638183 38:-1 39:-0.235556 40:-0.412222 41:0.764444 42:-1 43:0.353333 44:-0.894737 45:-0.117778 46:-0.457975 47:0.693013 48:-1 49:0.172222 50:0.353333 51:-0.517778 52:-0.517778 53:-0.214204 54:0.586667 55:0.172222 56:0.172222 57:-0.0344444 58:-1 59:-0.404444 60:0.414444 61:-0.578947 62:-0.972027 63:-0.97163 64:0.403333 65:0.426667 66:-0.185021 67:-0.374444 68:-0.8 69:0.403333 70:-0.971219 71:0.116667 72:-1 73:-0.977153 74:-0.959964 75:-0.947082 76:-0.929987 77:-0.901227 78:1 79:-1 80:-0.374444 81:0.457778 82:-1 83:0.517778 84:-0.75 85:-0.01 86:0.457778 87:0.153333 88:-0.604444 89:-0.604444 90:0.414444 91:-0.411765 92:-0.707778 93:-0.0733333 94:-0.578947 95:0.414444 96:-1 97:0.122222 98:-0.707778 99:-1 100:0.388859 101:0.057971 102:0.2 
1 1:-0.795841 2:-0.806157 3:0.0130374 4:-1 5:-0.395715 6:0.0526316 7:1 8:0.693013 9:-0.240919 10:1 11:0.0100819 12:-0.795841 13:-1 14:-0.297417 15:-0.302222 16:-0.125 17:-0.206667 18:-0.294444 19:-1 20:-0.0111111 21:-0.404444 22:1 23:0.717778 24:-0.852222 25:0.2 26:0.662222 27:-0.304444 28:-0.198889 29:-0.70208 30:0.662222 31:-1 32:0.0611111 33:-0.206667 34:-0.2 35:-0.38 36:0.528889 37:0.835587 38:-1 39:-0.0588889 40:0.353333 41:-0.235556 42:1 43:-0.0588889 44:-0.0526316 45:-0.705556 46:0.621637 47:-0.171439 48:-1 49:-1 50:-1 51:-0.172222 52:0.793333 53:-0.718977 54:0.172222 55:-0.517778 56:0.793333 57:-0.172222 58:1 59:0.208889 60:0.414444 61:-0.0526316 62:0.498491 63:0.483099 64:0.236667 65:-0.236667 66:-0.481831 67:0.403333 68:-0.2 69:-1 70:0.506491 71:0.403333 72:0.274444 73:0.48423 74:0.445327 75:0.493561 76:0.492808 77:0.474754 78:-0.374444 79:-0.326667 80:0.236667 81:-1 82:-1 83:0.457778 85:-0.604444 86:-0.01 87:-0.312222 88:0.601111 89:-0.01 90:-1 91:-0.0588235 92:-0.0733333 93:-0.707778 94:0.157895 95:-0.0733333 96:-1 97:-0.463333 98:0.463333 99:0.117778 100:-0.0638183 101:0.507876 102:-0.3 
1 1:-0.78765 2:-0.240919 3:0.761997 4:-1 5:-0.52615 6:-0.0526316 7:1 8:0.55021 9:0.190422 10:1 11:-0.0346566 12:-0.795841 13:-0.198889 14:-0.795841 15:-0.198889 17:-0.302222 18:-0.206667 19:-1 20:-0.0111111 21:0.662222 22:1 23:-0.38 24:-0.38 25:0.2 26:0.717778 27:-0.0111111 28:-0.188889 29:-0.481831 30:0.662222 31:-1 32:0.0611111 33:-0.206667 34:-0.4 35:-0.19 36:0.117778 37:-0.0638183 38:-1 39:-0.0588889 40:-1 41:-0.0588889 42:1 43:0.353333 44:-0.0526316 45:-1 46:-0.70208 47:0.693013 48:-1 49:1 50:-0.528889 51:-1 52:0.793333 53:0.55021 54:-1 55:0.793333 56:0.172222 57:-1 58:1 59:0.0611111 60:-1 61:-0.157895 62:0.830751 63:0.84004 64:0.403333 65:-1 66:0.761997 67:0.274444 68:-0.1 69:-0.388889 70:0.827111 71:-1 72:0.274444 73:0.829357 74:0.812494 75:0.808451 76:0.782517 77:0.776101 78:0.236667 79:-0.326667 80:0.236667 81:-0.752222 82:-1 83:-1 85:-0.01 86:0.457778 87:-1 88:-0.326667 89:-0.01 90:-0.755556 91:-0.0588235 92:-0.0733333 93:-0.0733333 94:0.157895 95:0.414444 96:-1 97:-1 98:-1 99:0.117778 100:0.716063 101:-0.395715 102:-0.1 
1 1:1 2:-0.806157 3:-0.481831 4:-1 5:-0.395715 6:-0.473684 7:-1 8:-0.553265 9:0.593093 10:-0.253814 11:0.441714 12:-0.795841 13:-0.302222 14:-0.297417 15:-0.306667 17:0.807778 18:-0.294444 19:-1 20:-0.306667 21:-0.404444 22:1 23:-0.515556 24:0.717778 25:-0.333333 26:-0.987778 27:-0.0833333 28:-0.198889 29:-0.465742 30:0.662222 31:-1 32:-0.515556 33:-0.206667 34:-0.1 35:-0.38 36:-0.587778 37:0.00108167 38:0.586667 39:-0.0588889 40:-0.412222 41:-0.235556 42:1 43:-0.294444 44:-0.0526316 45:0.353333 46:0.621637 47:0.347334 48:-1 49:-1 50:-1 51:-0.447778 52:0.793333 53:0.693013 54:0.586667 55:-0.517778 56:0.31 57:0.172222 58:-1 59:-0.748889 60:-0.122222 61:0.0526316 62:0.302073 63:0.165795 64:-0.0977778 65:0.403333 66:-0.253814 67:-0.236667 68:-0.1 69:-1 70:0.24605 71:-0.255556 72:-0.255556 73:0.248281 74:0.359823 75:0.456539 76:0.482949 77:0.457654 78:-0.374444 79:-0.0222222 80:0.236667 81:-1 82:-0.122222 83:-0.0222222 84:-0.125 85:-0.604444 86:0.181111 87:0.457778 88:-0.27 89:-0.01 90:-1 91:0.0588235 92:-0.0733333 93:-0.707778 94:-0.368421 95:0.0733333 96:-1 97:0.414444 98:-0.365556 99:-0.412222 100:-0.121147 101:-0.78765 102:-0.3 
1 1:-0.52615 2:0.548786 3:-0.96061 4:-1 5:-0.78765 6:-0.473684 7:-1 8:0.593993 9:0.00863333 10:-0.481831 11:0.432892 12:0.815375 13:-0.964444 14:0.0100819 15:1 16:0.125 17:-0.188889 18:-0.304444 19:-1 20:-0.302222 21:0.208889 22:-1 23:-1 24:-0.773333 25:-0.333333 26:-0.19 27:-0.306667 28:-0.302222 29:-0.876838 30:-1 31:-1 32:0.717778 33:1 34:0.2 35:0.717778 36:-0.412222 37:1 38:0.172222 39:-0.412222 40:-0.412222 41:0.528889 42:-1 43:-0.528889 44:-0.368421 45:-0.646667 46:0.305964 47:0.0250732 48:-1 49:0.172222 50:0.353333 51:0.586667 52:0.586667 53:0.587629 54:0.586667 55:-0.172222 56:1 57:1 58:-1 59:-0.515556 60:0.414444 61:-0.368421 62:-0.705776 63:-0.708853 64:-0.388889 65:-0.255556 66:-0.185021 67:-0.255556 68:-0.3 69:0.403333 70:-0.707759 71:0.116667 72:0.403333 73:-0.683178 74:-0.705462 75:-0.718712 76:-0.674278 77:-0.62925 78:0.403333 79:0.457778 80:0.116667 81:0.457778 82:0.414444 83:0.517778 84:0.875 85:0.601111 86:-0.752222 87:-0.0644444 88:-0.0222222 89:0.517778 90:0.414444 91:-0.176471 92:0.414444 93:0.463333 94:-0.263158 95:-0.755556 96:-1 97:-0.267778 98:-0.122222 99:0.353333 100:0.388859 101:0.701323 102:0.6 
1 1:-0.78765 2:-0.354944 3:-0.149515 4:1 5:1 6:0.263158 7:-1 8:0.55021 9:0.190422 10:-0.465742 11:0.057971 12:-0.795841 13:-0.232222 14:-0.996219 15:-0.198889 16:-0.125 17:-0.302222 18:-0.212222 19:1 20:0.807778 21:0.367778 22:1 23:-0.38 24:1 25:0.2 26:0.717778 27:0.216667 28:0.807778 29:-0.481831 30:0.662222 31:1 32:-0.987778 33:-0.206667 34:0.1 35:-0.987778 36:-0.117778 37:-0.0638183 38:0.31 39:-0.0588889 40:-1 41:1 42:-1 43:0.353333 44:-0.263158 45:0.587778 46:-0.309293 47:0.693013 48:1 49:0.31 50:-0.294444 51:-0.0344444 52:0.793333 53:0.382716 54:-1 55:-0.0344444 56:0.172222 57:0.31 58:-1 59:-0.301111 60:-1 61:-0.368421 62:-0.907426 63:-0.922535 64:0.403333 65:0.532222 66:0.761997 67:0.426667 68:-0.1 69:-0.0977778 70:-0.908021 71:-1 72:-0.0977778 73:-0.951476 74:-0.950307 75:-0.948089 76:-0.933206 77:-0.885134 78:0.752222 79:0.181111 80:0.236667 81:0.181111 82:0.0733333 83:-1 85:-0.257778 86:0.457778 87:1 88:0.153333 89:-0.01 90:0.0733333 91:0.529412 92:-0.0733333 93:-0.316667 94:-0.157895 95:0.414444 96:-1 97:1 98:0.122222 99:-0.294444 100:0.716063 101:-0.52867 102:-0.4 
1 1:-0.78765 2:-0.240919 3:0.0263523 4:-1 5:-0.297417 6:0.0526316 7:1 8:0.593993 9:0.190422 10:-0.481831 11:-0.934468 12:0.507876 13:-0.32 14:-0.795841 15:1 17:-0.302222 18:-0.206667 19:-1 20:-0.302222 21:0.662222 22:1 23:-1 24:-0.221111 25:0.0666667 26:0.717778 27:-0.206667 28:-0.294444 29:-0.481831 30:-0.852222 31:-1 32:0.717778 33:-1 34:-0.1 35:-0.404444 36:0.764444 37:-0.0638183 38:0.172222 39:-0.705556 40:-0.412222 41:-0.0588889 42:1 43:0.353333 44:-0.157895 45:0.235556 46:-0.70208 47:0.693013 48:-1 49:-0.517778 50:-0.235556 51:0.172222 52:-0.172222 53:0.774978 54:0.586667 55:0.793333 56:0.172222 57:-0.447778 58:1 59:0.724444 60:0.414444 61:-0.0526316 62:-0.947676 63:-0.947686 64:0.403333 65:0.446667 66:-0.185021 67:1 68:-0.3 69:-0.374444 70:-0.946664 71:0.116667 72:0.403333 73:-0.96482 74:-0.955135 75:-0.950101 76:-0.950307 77:-0.950714 78:0.236667 79:0.457778 80:-0.236667 81:-0.604444 82:0.414444 83:0.517778 84:-0.125 85:-0.01 86:0.457778 87:-0.356667 88:-0.01 89:-0.312222 90:-0.707778 91:0.647059 92:-0.463333 93:-0.0733333 94:0.368421 95:0.414444 96:-1 97:-0.463333 98:-0.0733333 99:0.353333 100:0.388859 101:-0.173913 102:-0.1 
1 1:0.507876 2:0.483955 3:0.305964 4:-1 5:-0.795841 6:-0.263158 7:1 8:0.587629 9:-1 10:0.305964 11:0.815375 12:0.0100819 13:-0.304444 14:-0.173913 15:-0.964444 16:0.25 17:-1 18:-0.32 19:-1 20:-0.304444 21:-0.221111 22:1 23:-0.773333 24:0.208889 25:-0.0666667 26:-0.852222 27:1 28:-0.206667 29:0.0130374 30:0.208889 31:-1 32:0.208889 33:-0.304444 34:-0.3 35:0.662222 36:-0.412222 37:0.0108167 38:-0.172222 39:0.528889 40:-0.646667 41:0.235556 42:1 43:-0.705556 44:-0.157895 45:0.528889 46:0.0263523 47:-0.718977 48:-1 49:0.793333 50:-0.0588889 51:0.586667 52:-0.172222 53:1 54:1 55:-0.447778 56:-0.172222 57:-0.172222 58:1 59:-1 60:-0.267778 61:0.0526316 62:-0.948883 63:-0.948692 64:-0.236667 65:0.403333 66:-0.96061 67:0.116667 68:0.2 69:0.236667 70:-0.945456 71:-0.255556 72:0.403333 73:-0.96017 74:-0.95252 75:-0.956338 76:-0.958354 77:-0.962583 78:0.446667 79:0.601111 80:0.403333 81:-0.01 82:0.463333 83:-0.0644444 84:0.25 85:-0.356667 86:-0.312222 87:0.601111 88:0.517778 89:0.601111 90:-0.0733333 91:0.176471 92:0.463333 93:-0.463333 94:0.157895 95:-0.463333 96:-1 97:0.463333 98:0.414444 99:0.528889 100:0.212006 101:0.0100819 
1 1:-0.795841 2:0.593093 3:-0.253814 4:-1 5:0.507876 6:-0.263158 7:1 8:0.542319 9:-0.240919 10:0.0263523 11:-0.996219 12:-0.934468 13:-0.306667 14:1 15:-0.0833333 17:-0.206667 18:0.807778 19:-1 20:-0.32 21:-0.987778 22:-1 23:-0.748889 24:-0.515556 25:0.0666667 26:0.662222 27:-0.212222 28:-1 29:-0.70208 30:0.724444 31:-1 32:-0.221111 33:-0.206667 34:-0.3 35:-0.852222 36:1 37:0.835587 38:-0.447778 39:0.764444 40:-0.587778 41:-0.294444 42:1 43:-0.0588889 44:0.0526316 45:-0.412222 46:-0.465742 47:-0.171439 48:-1 49:-0.172222 50:-0.705556 51:-0.0344444 52:0.172222 53:-0.553265 54:-0.447778 55:0.31 56:0.793333 57:0.586667 58:1 59:0.367778 60:-0.365556 61:0.368421 62:-0.908634 63:-0.923541 64:0.236667 65:-0.255556 66:0.304854 67:0.752222 68:-0.1 69:-0.236667 70:-0.885479 71:-0.236667 72:0.446667 73:-0.937525 74:-0.934413 75:-0.941247 76:-0.938638 77:-0.9483 78:-0.0977778 79:-0.356667 80:1 81:-0.312222 82:-0.463333 83:-0.27 85:0.181111 86:-0.01 87:-0.0222222 88:-0.257778 89:-0.01 90:-0.463333 91:-0.0588235 92:-0.0733333 93:0.0733333 94:0.157895 95:-0.0733333 96:1 97:-0.122222 98:-0.316667 99:0.235556 100:0.0594916 101:0.432892 102:0.2 
0.4176554214016324 1:0.0100819 2:0.451051 3:0.0130374 4:1 5:-0.934468 6:0.0526316 7:-1 8:1 9:0.548786 10:0.0263523 11:-0.173913 12:-0.795841 13:-1 14:-0.571519 15:-0.304444 16:0.125 17:-0.304444 18:-0.291111 19:1 20:-0.32 21:0.374444 22:1 23:0.208889 24:-0.852222 25:0.0666667 26:0.208889 27:-0.32 28:-0.206667 29:0.305964 30:0.662222 31:1 32:-0.221111 33:-0.206667 35:0.724444 36:0.235556 37:-0.302326 38:-0.447778 39:-0.0588889 40:0.528889 41:-0.00111111 42:-1 43:0.528889 44:-0.157895 45:-0.705556 46:-1 47:1 48:1 49:0.172222 50:0.764444 51:-0.447778 52:0.793333 53:-0.718977 54:-0.172222 55:0.724444 56:-0.172222 57:-0.172222 58:-1 59:-0.221111 60:0.463333 61:-0.157895 62:-0.948279 63:-0.954326 64:0.403333 65:-0.236667 66:0.305964 67:0.446667 68:0.1 69:1 70:-0.938613 71:0.403333 72:0.446667 73:-0.961585 74:-0.95594 75:-0.960362 76:-0.962177 77:-0.958358 78:0.122222 79:-0.356667 80:0.236667 81:-0.01 82:-0.463333 83:0.601111 84:0.125 85:0.0966667 86:0.601111 87:-0.312222 88:-0.356667 89:-0.01 90:-0.0733333 91:0.411765 92:-0.0733333 93:0.0733333 94:0.157895 95:0.463333 96:-1 97:-0.463333 98:-0.463333 99:0.235556 100:-0.302326 101:0.507876 102:0.2 
1 1:-0.571519 2:0.548786 3:0.305964 4:1 5:-0.173913 6:-0.0526316 7:-1 8:-0.171439 9:0.451051 10:0.304854 11:0.507876 12:-0.173913 13:-0.304444 14:0.0100819 15:-0.206667 16:0.25 17:-0.291111 18:-0.304444 19:1 20:-0.0833333 21:0.208889 22:-1 23:0.662222 24:0.208889 25:0.333333 26:0.374444 27:-1 28:-0.32 29:-1 30:-0.221111 31:-1 32:-0.748889 33:-0.32 35:-0.221111 36:-0.705556 37:-0.392645 38:-0.447778 39:0.235556 40:-0.0588889 41:0.528889 42:-1 43:-0.00111111 44:-0.263158 45:0.528889 46:0.305964 47:0.776505 48:1 49:-0.447778 50:0.235556 51:-0.172222 52:-0.447778 53:1 54:0.793333 55:-0.172222 56:0.724444 57:-0.172222 58:-1 59:-0.852222 60:-0.0733333 61:0.0526316 62:-0.954317 63:-0.952113 64:0.122222 65:0.403333 66:-0.70208 67:-0.236667 68:-0.2 69:0.446667 70:-0.948274 71:0.236667 72:-0.236667 73:-0.965427 74:-0.960366 75:-0.962173 76:-0.958354 77:-0.942466 78:0.403333 79:-0.27 80:0.446667 81:-0.356667 82:-0.365556 83:-0.01 85:0.601111 86:0.0966667 87:0.601111 88:-0.312222 89:-0.356667 90:-0.463333 91:0.176471 92:-0.463333 93:0.463333 94:0.263158 95:0.0733333 96:1 97:0.463333 98:-0.463333 99:-0.587778 100:0.835587 101:0.0100819 102:-0.3 
1 1:0.0100819 2:-0.240919 3:-1 4:-1 5:0.507876 6:-0.0526316 7:-1 8:0.774978 9:0.548786 10:-0.876838 11:0.0100819 12:0.441714 13:-0.291111 14:-0.795841 15:-0.32 17:-0.304444 18:-0.206667 19:1 20:-0.188889 21:0.662222 22:-1 23:-0.221111 24:0.374444 25:0.0666667 26:0.208889 27:-0.304444 28:-1 29:0.305964 30:-0.748889 31:-1 32:-0.19 33:-0.0833333 34:0.2 35:-0.852222 36:0.528889 37:-0.302326 38:1 39:-0.587778 40:0.235556 41:-0.0588889 42:1 43:0.528889 44:-0.0526316 45:-0.00111111 46:-0.70208 47:1 48:1 49:-0.172222 50:-0.705556 51:-0.172222 52:-0.447778 53:0.776505 54:-0.447778 55:0.793333 56:-0.172222 57:0.724444 58:-1 59:0.208889 60:-0.463333 61:-0.0526316 62:-0.952103 63:-0.955936 64:0.403333 65:0.122222 66:0.0263523 67:0.403333 69:-0.236667 70:-0.954312 71:0.446667 72:-0.388889 73:-0.969875 74:-0.962177 75:-0.95835 76:-0.942461 77:-0.917522 78:0.236667 79:-0.752222 80:-0.236667 81:-0.312222 82:-0.755556 83:-0.356667 85:-0.01 86:0.601111 87:0.0966667 88:0.601111 89:-0.27 90:-0.463333 91:0.529412 92:-0.365556 93:-0.0733333 94:0.0526316 95:0.463333 96:1 97:0.0733333 98:0.463333 99:-0.528889 100:0.641969 101:-0.571519 102:-0.2 
1 1:0.0100819 2:0.548786 3:-0.457975 4:-1 5:-0.795841 6:0.0526316 7:1 8:0.593993 9:0.548786 10:-0.70208 11:0.441714 12:0.815375 13:-0.206667 14:0.0100819 15:1 16:0.125 17:-0.304444 18:-0.304444 19:-1 20:-0.206667 21:0.208889 22:1 23:-1 24:0.724444 25:0.0666667 26:0.208889 27:-0.0833333 28:-0.206667 29:0.305964 30:-1 31:-1 32:0.662222 33:1 34:0.3 35:0.662222 36:-0.587778 37:-0.302326 38:0.793333 39:-0.412222 40:-0.412222 41:0.528889 42:1 43:0.528889 44:-0.157895 45:0.764444 46:0.305964 47:1 48:-1 49:0.793333 50:-0.0588889 51:-0.447778 52:0.586667 53:0.754105 54:0.586667 55:-0.172222 56:-0.172222 57:0.172222 58:1 59:-0.748889 60:0.414444 61:0.263158 62:-0.917287 63:-0.928773 64:0.403333 65:1 66:-0.185021 67:-0.236667 68:0.3 69:0.236667 70:-0.893731 71:0.116667 72:0.236667 73:-0.943995 74:-0.937028 75:-0.939437 76:-0.939845 77:-0.941662 78:0.403333 79:-0.01 80:0.116667 81:-0.01 82:-0.0733333 83:0.517778 84:-0.125 85:0.601111 86:0.601111 87:-0.01 88:-0.27 89:0.517778 90:-0.0733333 91:0.176471 92:0.414444 93:0.463333 94:-0.157895 95:0.463333 96:-1 97:-0.0733333 98:-0.365556 99:-0.0588889 100:0.388859 101:-0.934468 102:0.1 
1 1:-0.78765 2:0.322039 3:-0.465742 4:1 5:-0.395715 6:0.368421 7:-1 8:0.754105 9:0.190422 10:-0.185021 11:-0.795841 12:1 13:0.807778 14:-0.934468 15:-0.206667 16:-0.125 17:-0.302222 18:-0.206667 19:1 20:1 21:0.724444 22:1 23:0.724444 24:-0.987778 25:0.2 26:0.717778 27:-0.206667 28:-0.198889 29:-0.481831 30:-0.987778 31:1 32:-1 33:0.807778 34:-0.1 35:-0.38 36:-0.0588889 37:-0.0638183 38:0.586667 39:-0.294444 40:0.764444 41:0.764444 42:-1 43:0.353333 44:-0.263158 45:-0.294444 46:-0.457975 47:0.693013 48:1 49:-1 50:-1 51:0.793333 52:0.31 53:0.347334 54:0.172222 55:0.172222 56:0.172222 57:0.31 58:-1 59:0.662222 60:-0.0733333 61:0.157895 62:-0.954116 63:-0.962777 64:0.403333 65:-0.0977778 66:-0.457975 67:0.236667 68:-0.3 69:-1 70:-0.954715 71:1 72:0.116667 73:-0.974121 74:-0.969621 75:-0.970624 76:-0.970224 77:-0.966606 78:1 79:0.517778 80:-0.0977778 81:-1 82:0.414444 83:-0.01 85:-0.01 86:0.457778 87:0.181111 88:-0.01 89:0.181111 90:-1 91:0.176471 92:0.0733333 93:-0.0733333 94:0.263158 95:0.414444 96:-1 97:0.0733333 98:-0.0733333 99:-0.412222 100:0.36344 101:1 102:-0.3 
1 1:-0.297417 2:0.190422 3:0.0130374 4:1 5:0.701323 6:-0.473684 7:1 8:0.0731831 9:-0.806157 10:0.621637 11:-0.934468 12:1 13:-1 14:-0.78765 15:-0.212222 16:0.375 17:-0.294444 18:-0.302222 19:-1 20:-0.294444 21:0.717778 22:1 23:0.367778 24:-0.852222 25:-0.466667 26:-0.404444 27:-0.206667 28:-0.964444 29:0.621637 30:-0.987778 31:1 32:-0.404444 33:0.807778 34:0.4 35:-0.773333 36:0.764444 37:0.51325 38:-0.517778 39:-0.294444 40:1 41:0.353333 42:-1 43:-0.235556 44:0.157895 45:-0.705556 46:-0.481831 47:-1 48:-1 49:1 50:-0.646667 51:0.172222 52:0.31 53:-0.718977 54:-0.0344444 55:0.172222 56:-0.517778 57:-0.172222 58:1 59:0.724444 60:-0.316667 61:-0.263158 62:-0.892735 63:-0.912475 64:-0.374444 65:-0.236667 66:-0.309293 67:1 68:0.5 69:-0.255556 70:-0.869176 71:0.752222 72:-0.374444 73:-0.935908 74:-0.93723 75:-0.937626 76:-0.94749 77:-0.950312 78:0.403333 79:-0.604444 80:-0.0977778 81:-0.0644444 82:-0.707778 83:-0.257778 85:0.457778 86:-0.604444 87:-0.312222 88:-0.01 89:0.181111 90:-0.267778 91:0.176471 92:0.0733333 93:0.414444 94:-0.368421 95:-0.707778 96:-1 97:-0.463333 98:-0.0733333 99:-0.235556 100:0.822607 101:0.507876 102:-0.2 
1 1:-0.795841 2:-1 3:0.304854 4:1 5:-0.78765 6:-0.0526316 7:1 8:0.593993 9:-0.240919 10:-0.70208 11:0.441714 12:-0.934468 13:-0.0833333 14:0.507876 15:1 17:-0.206667 18:-1 19:-1 20:-0.206667 21:-0.852222 22:1 23:-1 24:-0.748889 25:0.2 26:0.662222 27:-0.0833333 28:-0.302222 29:-0.70208 30:0.724444 31:1 32:0.662222 33:-0.206667 34:-0.2 35:0.717778 36:-0.587778 37:0.835587 38:0.793333 39:0.764444 40:-0.412222 41:-0.705556 42:-1 43:-0.0588889 44:-0.0526316 45:-0.587778 46:0.0130374 47:-0.171439 48:-1 49:0.172222 50:0.353333 51:-0.447778 52:0.172222 53:0.542319 54:0.586667 55:-0.172222 56:0.793333 57:-0.447778 58:1 59:-0.748889 60:0.414444 61:-0.157895 62:-0.831354 63:-0.858954 64:0.236667 65:-0.236667 66:-0.185021 67:-0.236667 68:-0.2 69:0.403333 70:-0.803361 71:0.116667 72:0.236667 73:-0.890214 74:-0.912081 75:-0.925151 76:-0.937431 77:-0.941058 78:-0.236667 79:-0.01 80:1 81:0.457778 82:-0.0733333 83:0.517778 85:-0.312222 86:-0.01 87:-0.27 88:-0.27 89:-0.01 90:0.414444 91:0.176471 92:-0.0733333 93:-0.463333 94:0.157895 95:-0.0733333 96:-1 97:-0.365556 98:-0.365556 99:-0.0588889 100:0.388859 101:0.441714 102:0.2 
1 1:0.0100819 2:0.593093 3:-0.70208 4:-1 5:-0.934468 6:-0.0526316 7:-1 8:0.347334 9:0.548786 10:-0.96061 11:-0.0346566 12:-0.571519 13:-0.206667 14:1 15:0.807778 16:0.125 17:-0.304444 18:0.807778 19:-1 20:-0.964444 21:-0.987778 22:1 23:-0.987778 24:0.662222 25:0.2 26:0.208889 27:-0.0111111 28:-0.206667 29:0.305964 30:0.374444 31:1 32:-0.773333 33:-0.291111 34:-0.2 35:0.724444 36:0.117778 37:-0.302326 38:1 39:-0.00111111 40:-0.294444 41:-0.294444 42:-1 43:0.528889 44:-0.157895 45:-0.0588889 46:-0.465742 47:1 48:-1 49:0.172222 50:0.764444 51:-1 52:0.724444 53:-0.171439 54:0.31 55:0.31 56:-0.172222 57:0.793333 58:1 59:0.0611111 60:0.0733333 61:0.157895 62:-0.932783 63:-0.94668 64:0.403333 65:0.236667 66:-0.465742 67:0.274444 68:0.1 69:1 70:-0.904196 71:-0.0977778 72:-0.255556 73:-0.966438 74:-0.965798 75:-0.969819 76:-0.972035 77:-0.974049 78:-0.0977778 79:-0.0644444 80:0.122222 81:-0.01 82:-0.267778 83:0.181111 85:0.181111 86:0.601111 87:-0.01 88:-0.326667 89:0.0966667 90:-0.0733333 91:-0.0588235 92:0.0733333 93:0.0733333 94:-0.0526316 95:0.463333 96:-1 97:-0.0733333 98:-1 99:-0.646667 100:0.00108167 101:-0.795841 102:0.1 
1 1:-0.297417 2:-0.354944 3:0.305964 4:1 5:1 6:-0.263158 7:1 8:-0.553265 9:-0.806157 10:-0.465742 11:-0.173913 12:-0.795841 13:-0.304444 14:-0.996219 15:-0.306667 16:0.375 17:-0.294444 18:-0.212222 19:-1 20:0.807778 21:0.367778 22:1 23:-0.515556 24:0.208889 25:-0.333333 26:-0.404444 27:-0.32 28:0.807778 29:0.621637 30:0.662222 31:1 32:-0.987778 33:-0.206667 34:0.1 35:-0.987778 36:0.235556 37:0.51325 38:0.31 39:-0.0588889 40:-0.412222 41:1 42:-1 43:-0.235556 44:-0.157895 45:0.528889 46:-0.309293 47:-1 48:-1 49:0.31 50:-0.294444 51:-0.447778 52:0.793333 53:1 54:0.586667 55:-0.0344444 56:-0.517778 57:-0.172222 58:1 59:-0.221111 60:-0.122222 61:-0.263158 62:-0.931173 63:-0.954728 64:-0.374444 65:0.403333 66:-0.253814 67:0.446667 68:0.5 69:-0.0977778 70:-0.913253 71:-0.255556 72:-0.0977778 73:-0.977153 74:-0.972437 75:-0.977264 76:-0.97968 77:-0.98109 78:0.752222 79:0.181111 80:0.236667 81:0.181111 82:0.0733333 83:-0.0222222 84:0.125 85:-0.257778 86:-0.604444 87:0.601111 88:-0.356667 89:-0.01 90:0.0733333 91:-0.0588235 92:-0.0733333 93:-0.316667 94:-0.0526316 95:-0.707778 96:-1 97:0.463333 98:-0.463333 99:-0.294444 100:-0.121147 101:0.0100819 102:-0.3 
1 1:-0.795841 2:0.548786 3:-0.465742 4:1 5:0.432892 6:0.578947 7:-1 8:-0.718977 9:-0.240919 10:-0.465742 11:-0.795841 12:0.507876 13:0.807778 14:0.0100819 15:-1 16:-0.25 17:-0.206667 18:-0.304444 19:1 20:0.807778 21:0.208889 22:-1 23:-0.852222 24:-0.987778 25:0.466667 26:0.662222 27:-0.206667 28:-0.306667 29:-0.70208 30:-0.852222 31:-1 32:-0.987778 33:-1 34:-0.2 35:-0.515556 36:-0.0588889 37:0.835587 38:0.31 39:-0.705556 40:-0.705556 41:0.528889 42:-1 43:-0.0588889 44:-0.473684 45:-0.294444 46:0.305964 47:-0.171439 48:1 49:0.586667 50:-0.412222 51:0.793333 52:-0.172222 53:0.347334 54:-0.172222 55:-0.172222 56:0.793333 57:0.31 58:-1 59:0.662222 60:-0.463333 61:0.157895 62:-0.979674 63:-0.981087 64:0.236667 65:-0.0977778 66:0.0130374 67:0.236667 68:-0.4 69:-0.255556 70:-0.977257 71:-0.236667 72:-0.0977778 73:-0.988273 74:-0.974047 75:-0.959557 76:-0.933407 77:-0.914906 78:0.403333 79:0.181111 80:-0.236667 81:-0.0222222 82:0.0733333 83:-0.312222 84:-0.25 85:0.601111 86:-0.01 87:0.181111 88:-0.01 89:-0.312222 90:-0.122222 91:-0.176471 92:-0.463333 93:0.463333 94:0.0526316 95:-0.0733333 96:1 97:0.0733333 98:-0.0733333 99:-0.294444 100:0.0108167 101:1 102:-0.3 
1 1:-0.795841 2:-0.354944 3:0.761997 4:1 5:-0.297417 6:0.157895 7:-1 8:0.55021 9:-0.240919 10:-0.385853 11:-0.795841 12:-0.173913 13:-0.198889 14:-0.996219 15:-0.198889 17:-0.206667 18:-0.212222 19:1 20:0.216667 21:0.367778 22:-1 23:-0.38 24:-0.38 25:0.6 26:0.662222 27:-0.206667 28:-0.294444 29:-0.70208 30:-0.221111 31:1 32:-0.301111 33:-0.32 34:0.1 35:-0.404444 36:-0.0588889 37:0.835587 38:-0.0344444 39:0.235556 40:-1 41:1 42:-1 43:-0.0588889 44:-0.263158 45:-1 46:-0.309293 47:-0.171439 48:1 49:-0.517778 50:-0.235556 51:0.793333 52:-0.447778 53:0.55021 54:-1 55:-0.0344444 56:0.793333 57:-1 58:-1 59:0.662222 60:-1 61:-0.263158 62:-0.958342 63:-0.965392 64:0.236667 65:-1 66:0.761997 67:0.236667 68:-0.3 69:-0.374444 70:-0.946865 71:-1 72:0.426667 73:-0.978569 74:-0.972236 75:-0.971429 76:-0.968011 77:-0.958157 78:0.752222 79:0.153333 80:0.446667 81:-0.604444 82:0.122222 83:-1 84:-0.125 85:-0.257778 86:-0.01 87:-1 88:-0.01 89:-0.356667 90:-0.707778 91:0.411765 92:-0.463333 93:-0.316667 94:0.157895 95:-0.0733333 96:1 97:-1 98:-0.0733333 99:-0.117778 100:0.716063 101:-0.395715 102:-0.2 
1 1:-0.52867 2:0.548786 3:0.304854 4:-1 5:-0.52615 6:-0.157895 7:-1 8:0.693013 9:-0.00374654 10:-0.385853 11:-0.297417 12:0.441714 13:-0.0833333 14:0.0100819 15:-0.302222 16:-0.25 17:-0.232222 18:-0.304444 19:-1 20:0.216667 21:0.208889 22:-1 23:0.717778 24:-0.748889 25:-0.333333 26:1 27:-0.294444 28:-0.188889 29:-0.149515 30:-0.748889 31:-1 32:-0.301111 33:-0.0833333 34:0.2 35:-0.19 36:-0.235556 37:-1 38:-0.0344444 39:-0.587778 40:0.353333 41:0.528889 42:-1 43:0.587778 44:-0.368421 45:-0.587778 46:0.305964 47:0.382716 48:-1 49:1 50:-0.528889 51:-0.517778 52:-0.447778 53:0.542319 54:0.172222 55:-0.172222 56:0.31 57:-0.447778 58:-1 59:-0.404444 60:0.414444 61:-0.263158 62:-0.968203 63:-0.968008 64:0.532222 65:-0.236667 66:-0.481831 67:-0.374444 68:0.2 69:-0.388889 70:-0.965986 71:0.403333 72:0.426667 73:-0.977962 74:-0.969621 75:-0.969215 76:-0.962579 77:-0.959968 78:0.403333 79:0.153333 80:-0.236667 81:-0.752222 82:0.122222 83:0.457778 84:-0.25 85:0.601111 86:1 87:-0.27 88:-0.604444 89:-0.27 90:-0.755556 91:-0.0588235 92:-0.365556 93:0.463333 94:-0.263158 95:1 96:1 97:-0.365556 98:-0.707778 99:-0.117778 100:-0.0638183 101:0.441714 102:-0.2 
1 1:-0.395715 2:-0.0268773 3:-0.70208 4:-1 5:1 6:-0.368421 7:1 8:-0.718977 9:0.72862 10:0.305964 11:-0.934468 12:-0.52867 13:-0.206667 14:-1 15:-1 16:0.25 17:-0.198889 18:-0.126667 19:-1 20:-0.304444 21:0.564444 22:1 23:-0.852222 24:0.662222 25:-0.333333 26:-0.38 27:-0.206667 28:0.807778 29:0.761997 30:1 31:-1 32:0.208889 33:-0.232222 34:-0.1 35:-0.987778 36:0.764444 37:0.716063 38:-0.172222 39:0.587778 40:-0.705556 41:0.528889 42:1 43:-1 44:-0.263158 45:-0.0588889 46:0.103467 47:0.55021 48:-1 49:0.31 50:-0.294444 51:0.172222 52:0.31 53:-0.171439 54:-0.172222 55:-0.724444 56:-1 57:0.793333 58:1 59:0.724444 60:-0.463333 61:-0.263158 62:-0.907024 63:-0.908249 64:-1 65:0.236667 66:0.0130374 67:1 68:-0.1 69:-0.0977778 70:-0.913656 71:-0.236667 72:0.403333 73:-0.939749 74:-0.918922 75:-0.928571 76:-0.922342 77:-0.932408 78:-0.155556 79:0.601111 80:0.532222 81:0.181111 82:0.463333 83:-0.312222 84:0.125 85:-0.398889 86:-1 87:-0.01 88:-0.01 89:1 90:0.0733333 91:-0.0588235 92:1 93:-0.365556 94:-0.263158 95:-1 96:-1 97:-0.0733333 98:-0.0733333 99:0.528889 100:0.0108167 101:-0.795841 102:-0.3 
1 1:-0.795841 2:0.00863333 3:-0.457975 4:1 5:1 6:-0.263158 7:-1 8:0.0250732 9:-0.240919 10:-0.96061 11:-0.395715 12:0.507876 13:-0.206667 14:-0.52615 15:-0.188889 16:-0.375 17:-0.206667 18:-0.188889 19:1 20:-0.964444 21:-0.19 22:-1 23:-0.19 24:0.724444 25:0.866667 26:0.662222 27:-0.198889 28:0.807778 29:-0.70208 30:-0.852222 31:1 32:-0.773333 33:-1 34:-0.6 35:-0.987778 36:-1 37:0.835587 38:1 39:-0.705556 40:-0.528889 41:-0.528889 42:-1 43:-0.0588889 44:-0.578947 45:0.764444 46:-0.876838 47:-0.171439 48:1 49:0.31 50:-0.294444 51:-1 52:-0.172222 53:0.754105 54:1 55:1 56:0.793333 57:0.172222 58:-1 59:-0.38 60:-0.755556 61:-0.473684 62:-0.923123 63:-0.93662 64:0.236667 65:1 66:-0.876838 67:-1 68:-0.6 69:-0.0977778 70:-0.907819 71:-0.388889 72:-0.255556 73:-0.954913 74:-0.948094 75:-0.948893 76:-0.947893 77:-0.936431 78:-0.388889 79:-0.0644444 80:-0.236667 81:0.181111 82:-0.267778 83:-0.752222 84:-0.25 85:-0.752222 86:-0.01 87:-0.01 88:-1 89:-0.312222 90:0.0733333 91:-0.411765 92:-0.463333 93:-0.755556 94:0.0526316 95:-0.0733333 96:1 97:-0.0733333 98:-1 99:-0.646667 100:1 101:-0.934468 102:-0.4 
1 1:-0.52615 2:-1 3:-0.876838 4:-1 5:-0.934468 6:-0.473684 7:-1 8:0.587629 9:0.00863333 10:0.0263523 11:-0.795841 12:-0.297417 13:-0.188889 14:0.507876 15:-0.964444 16:0.125 17:-0.188889 18:-1 19:1 20:-0.32 21:-0.852222 22:-1 23:-0.773333 24:-0.19 25:-0.0666667 26:-0.19 27:-0.206667 28:-0.206667 29:-0.876838 30:-0.404444 31:-1 32:-0.221111 33:-0.294444 34:-0.8 35:0.724444 36:-0.0588889 37:1 38:-0.447778 39:-0.235556 40:-0.646667 41:-0.705556 42:1 43:-0.528889 44:-0.368421 45:-0.528889 46:0.0130374 47:0.0250732 48:1 49:0.172222 50:0.764444 51:0.793333 52:-0.517778 53:0.0250732 54:1 55:-0.172222 56:1 57:1 58:-1 59:0.662222 60:-0.267778 61:-0.157895 62:-0.945462 63:-0.948089 64:-0.388889 65:-0.388889 66:-0.96061 67:0.236667 68:-0.4 69:1 70:-0.936601 71:-0.255556 72:0.446667 73:-0.95835 74:-0.947893 75:-0.936419 76:-0.916709 77:-0.88272 78:-0.236667 79:-0.356667 80:-0.374444 81:-0.01 82:-0.463333 83:-0.0644444 84:0.75 85:-0.312222 86:-0.752222 87:-0.752222 88:-0.01 89:-0.604444 90:-0.0733333 91:-0.764706 92:-0.707778 93:-0.463333 94:0.0526316 95:-0.755556 96:1 97:-0.755556 98:-0.0733333 99:0.235556 100:0.212006 101:-0.52615 
1 1:0.0100819 2:0.00863333 3:-0.185021 4:-1 5:-0.795841 6:0.263158 7:-1 8:-1 9:0.548786 10:0.103467 11:-0.52615 12:-0.934468 13:1 14:-0.52615 15:-0.294444 16:-0.5 17:-0.304444 18:-0.188889 19:-1 20:-0.126667 21:-0.19 22:-1 23:-0.404444 24:-1 25:-0.466667 26:0.208889 27:-0.188889 28:-0.206667 29:0.305964 30:0.724444 31:-1 32:0.564444 33:-0.206667 34:-0.5 35:0.662222 36:-0.528889 37:-0.302326 38:-0.724444 39:0.764444 40:-0.235556 41:-0.528889 42:-1 43:0.528889 44:-0.578947 45:-0.412222 46:-0.876838 47:1 48:-1 49:0.793333 50:-0.0588889 51:1 52:0.172222 53:0.593993 54:-0.517778 55:1 56:-0.172222 57:0.586667 58:-1 59:-0.19 60:-0.707778 61:-0.473684 62:-0.984303 63:-0.983702 64:0.403333 65:0.116667 66:0.621637 67:-0.388889 68:-0.5 69:0.236667 70:-0.984502 71:-0.374444 72:-0.155556 73:-0.992317 74:-0.981692 75:-0.98008 76:-0.977869 77:-0.973044 78:-0.388889 79:-0.398889 80:1 81:-0.01 82:-0.365556 83:-0.604444 84:-0.5 85:-0.752222 86:0.601111 87:0.517778 88:-0.752222 89:-0.01 90:-0.0733333 91:-0.411765 92:-0.0733333 93:-0.755556 94:-0.473684 95:0.463333 96:-1 97:0.414444 98:-0.755556 99:0.528889 100:0.51325 101:0.815375 102:-0.3 
1 1:-0.0346566 2:0.322039 3:-0.309293 4:1 5:-0.395715 6:-0.263158 7:1 8:0.0731831 9:-0.397296 10:1 11:-0.934468 12:0.701323 13:-0.212222 14:-0.934468 15:-0.212222 16:0.125 17:-0.0111111 18:-0.206667 19:-1 20:-0.0111111 21:0.724444 22:1 23:0.367778 24:0.367778 25:0.0666667 26:0.0611111 27:-0.206667 28:-0.198889 29:1 30:-0.773333 31:1 32:0.0611111 33:-0.964444 34:0.1 35:-0.38 36:0.764444 37:0.378583 38:-1 39:-0.646667 40:1 41:0.764444 42:-1 43:0.117778 44:-0.157895 45:1 46:-0.457975 47:-0.202749 48:-1 49:-1 50:-1 51:0.172222 52:1 53:0.0731831 54:-0.0344444 55:0.172222 56:-1 57:-0.0344444 58:1 59:0.724444 60:-0.316667 61:-0.263158 62:-0.950694 63:-0.951911 64:0.274444 65:0.752222 66:-0.309293 67:1 68:-0.1 69:-1 70:-0.951897 71:0.752222 72:0.274444 73:-0.963809 74:-0.956946 75:-0.957143 76:-0.950106 77:-0.942466 78:1 79:-0.326667 80:-0.255556 81:-1 82:-1 83:-0.257778 84:0.25 85:-0.01 86:-0.326667 87:-0.257778 88:-0.01 89:-0.0644444 90:-1 91:0.294118 92:-0.267778 93:-0.0733333 94:-0.0526316 95:-1 96:-1 97:-0.316667 98:-0.0733333 99:0.117778 100:0.822607 101:-0.996219 102:-0.4 
1 1:-0.52615 2:0.451051 3:-0.457975 4:-1 5:0.701323 6:-0.263158 7:-1 8:0.0250732 9:0.00863333 10:-0.309293 11:0.701323 12:-0.173913 13:-0.206667 14:-0.571519 15:-0.188889 16:0.125 17:-0.188889 18:-0.291111 19:-1 20:-0.212222 21:0.374444 22:-1 23:-0.19 24:0.724444 25:-0.333333 26:-0.19 27:-0.964444 28:-0.964444 29:-0.876838 30:-0.221111 31:-1 32:0.367778 33:-0.32 34:0.1 35:-0.773333 36:-0.646667 37:1 38:-0.0344444 39:0.235556 40:-0.528889 41:-0.00111111 42:-1 43:-0.528889 44:-0.473684 45:0.764444 46:-1 47:0.0250732 48:-1 49:1 50:-0.646667 51:1 52:-0.447778 53:0.754105 54:1 55:0.724444 56:1 57:0.172222 58:-1 59:-0.773333 60:-0.755556 61:0.0526316 62:-0.897766 63:-0.915292 64:-0.388889 65:1 66:-0.876838 67:-0.255556 68:-0.4 69:-0.255556 70:-0.87783 71:-0.388889 72:0.752222 73:-0.933684 74:-0.931596 75:-0.938431 76:-0.943265 77:-0.946087 78:0.122222 79:-0.257778 80:0.446667 81:-0.0644444 82:-0.316667 83:-0.752222 84:0.875 85:0.0966667 86:-0.752222 87:-0.01 88:-0.0644444 89:-0.356667 90:-0.267778 91:0.0588235 92:-0.463333 93:0.0733333 94:-0.368421 95:-0.755556 96:-1 97:-0.0733333 98:-0.267778 99:1 100:1 101:-0.934468 102:-0.4 
1 1:0.507876 2:-0.806157 3:-0.876838 4:-1 5:-0.78765 6:-0.473684 7:1 8:0.0731831 9:-1 10:-0.876838 11:-0.395715 12:-0.0346566 13:-0.188889 14:-0.297417 15:-0.212222 16:0.125 17:-1 18:-0.294444 19:-1 20:-0.188889 21:-0.404444 22:1 23:0.367778 24:-0.19 25:-0.466667 26:-0.852222 27:-0.198889 28:-0.302222 29:0.0130374 30:0.0611111 31:-1 32:-0.19 33:-0.0111111 34:-0.2 35:0.717778 36:-1 37:0.0108167 38:1 39:0.117778 40:1 41:-0.235556 42:1 43:-0.705556 44:-0.0526316 45:-0.528889 46:0.621637 47:-0.718977 48:-1 49:0.172222 50:0.353333 51:-1 52:-1 53:0.0250732 54:-0.0344444 55:-0.517778 56:-0.172222 57:1 58:1 59:-0.38 60:-0.316667 61:0.157895 62:0.805393 63:0.84165 64:-0.236667 65:-0.388889 66:-0.309293 67:-1 68:0.1 69:0.403333 70:0.709369 71:0.752222 72:-0.388889 73:0.868985 74:0.882507 75:0.84004 76:0.873453 77:0.90525 78:-0.374444 79:-0.752222 80:0.274444 81:0.457778 82:-0.755556 83:-0.257778 85:-0.604444 86:-0.312222 87:-0.752222 88:-1 89:-0.326667 90:0.414444 91:0.0588235 92:-1 93:-0.707778 94:-0.368421 95:-0.463333 96:-1 97:-0.755556 98:-1 99:-0.528889 100:0.822607 101:-0.52615 102:0.3 
1 1:0.701323 2:-0.354944 3:0.621637 4:1 5:0.701323 6:-0.473684 7:-1 8:0.347334 9:-0.216485 10:0.0130374 11:-0.934468 12:-0.571519 13:-0.294444 14:-0.996219 15:0.807778 17:-0.964444 18:-0.212222 19:-1 20:-1 21:0.367778 22:-1 23:-0.987778 24:-0.404444 25:-0.2 26:-0.773333 27:-0.206667 28:-0.964444 29:-0.96061 30:0.374444 31:1 32:-0.852222 33:-0.291111 34:-0.2 35:-0.773333 36:0.764444 37:0.212006 38:-0.172222 39:-0.00111111 40:-0.294444 41:1 42:-1 43:-0.646667 44:0.157895 45:-0.235556 46:-0.309293 47:0.587629 48:-1 49:1 50:-0.646667 51:0.172222 52:0.724444 53:-1 54:0.31 55:-0.0344444 56:1 57:-0.517778 58:-1 59:0.724444 60:0.0733333 61:-0.157895 62:0.10646 63:0.0557344 64:-0.255556 65:-0.374444 66:-0.465742 67:1 69:-0.255556 70:0.204991 71:-0.0977778 72:-0.236667 73:0.0268904 74:-0.0507997 75:-0.0792757 76:-0.114978 77:-0.11205 78:0.752222 79:-0.312222 80:0.122222 81:-0.0644444 82:-0.463333 83:0.181111 85:-0.257778 86:-0.0644444 87:-0.604444 88:-0.01 89:0.0966667 90:-0.267778 91:0.294118 92:0.0733333 93:-0.316667 94:-0.263158 95:-0.267778 96:-1 97:-0.707778 98:-0.0733333 99:-0.705556 100:0.00108167 101:-0.297417 102:-0.3 
1 1:-0.52615 2:-0.216485 3:0.0130374 4:-1 5:1 6:0.0526316 7:1 8:0.693013 9:0.00863333 10:-0.385853 11:-0.571519 12:0.815375 13:-1 14:0.701323 15:-0.302222 16:0.125 17:-0.188889 18:-0.964444 19:-1 20:0.216667 21:-0.773333 22:-1 23:0.717778 24:-0.852222 25:-0.0666667 26:-0.19 27:-0.291111 28:0.807778 29:-0.876838 30:-1 31:1 32:-0.301111 33:1 34:-0.4 35:-0.987778 36:-0.00111111 37:1 38:-0.0344444 39:-0.412222 40:0.353333 41:-0.646667 42:1 43:-0.528889 44:-0.0526316 45:-0.705556 46:-0.96061 47:0.0250732 48:-1 49:0.31 50:-0.294444 51:0.724444 52:0.586667 53:-0.718977 54:0.172222 55:1 56:1 57:-0.172222 58:1 59:0.374444 60:0.414444 61:0.473684 62:-0.114711 63:-0.111871 64:-0.388889 65:-0.236667 66:-0.481831 67:0.122222 68:-0.1 69:-0.0977778 70:-0.0789977 71:0.403333 72:0.426667 73:-0.160736 74:-0.199879 75:-0.295775 76:-0.297254 77:-0.321666 78:-0.255556 79:0.153333 80:0.116667 81:0.181111 82:0.122222 83:0.457778 84:0.25 85:-0.0644444 86:-0.752222 87:-0.312222 88:0.0966667 89:0.517778 90:0.0733333 91:-0.176471 92:0.414444 93:-0.267778 94:0.157895 95:-0.755556 96:1 97:-0.463333 98:0.0733333 99:-0.117778 100:-0.0638183 101:0.507876 102:-0.3 
1 1:0.701323 2:0.190422 3:-0.876838 4:1 5:-0.571519 6:-0.473684 7:1 8:0.593993 9:-0.216485 10:0.0130374 11:0.507876 12:0.057971 13:-0.188889 14:-0.78765 15:1 16:0.25 17:-0.964444 18:-0.302222 19:-1 20:-1 21:0.717778 22:1 23:-1 24:-0.19 25:-0.333333 26:-0.773333 27:-1 28:-0.291111 29:-0.96061 30:-0.301111 31:1 32:-0.852222 33:0.216667 35:0.374444 36:-0.705556 37:0.212006 38:-0.172222 39:-0.117778 40:-0.412222 41:0.353333 42:-1 43:-0.646667 44:-0.157895 45:-0.528889 46:-0.481831 47:0.587629 48:-1 49:0.724444 50:-0.00111111 51:-0.172222 52:-0.0344444 53:0.0250732 54:0.586667 55:0.172222 56:1 57:1 58:1 59:-0.852222 60:0.414444 61:0.0526316 62:-0.111692 63:-0.155131 64:-0.255556 65:-0.388889 66:-0.185021 67:-0.236667 68:0.4 69:0.122222 70:-0.114622 71:0.116667 72:-0.236667 73:-0.205621 74:-0.295845 75:-0.297183 76:-0.321597 77:-0.300342 78:0.403333 79:-0.312222 80:0.426667 81:0.0966667 82:-0.463333 83:0.517778 84:-0.125 85:0.457778 86:-0.0644444 87:-0.752222 88:-0.312222 89:0.153333 90:0.0733333 91:0.0588235 92:0.122222 93:0.414444 94:-0.368421 95:-0.267778 96:-1 97:-0.755556 98:-0.463333 99:-0.705556 100:0.388859 101:-0.52615 102:0.2 
1 1:-0.78765 2:1 3:-0.96061 4:1 5:0.507876 6:-0.0526316 7:-1 8:-0.214204 9:0.190422 10:0.621637 11:-0.52615 12:0.507876 13:-0.964444 14:0.815375 15:0.216667 17:-0.302222 18:1 19:-1 20:-0.294444 21:-1 22:1 23:-0.301111 24:-0.773333 25:-0.0666667 26:0.717778 27:-0.188889 28:-1 29:-0.481831 30:-0.852222 31:1 32:-0.404444 33:-1 34:-0.3 35:-0.852222 36:-0.528889 37:-0.0638183 38:-0.517778 39:-0.705556 40:-0.117778 41:-0.412222 42:-1 43:0.353333 44:-0.0526316 45:-0.646667 46:-0.185021 47:0.693013 48:1 49:-0.172222 50:-0.705556 51:1 52:-0.172222 53:0.587629 54:-0.0344444 55:0.586667 56:0.172222 57:1 58:1 59:-0.19 60:0.122222 61:-0.0526316 62:-0.154961 63:-0.199799 64:0.403333 65:-0.255556 66:-0.385853 67:-0.388889 69:-0.236667 70:-0.111603 71:0.426667 72:-0.374444 73:-0.302062 74:-0.297254 75:-0.321529 76:-0.300272 77:-0.314222 78:0.116667 79:-0.604444 80:-0.236667 81:-0.312222 82:-0.707778 83:0.153333 84:0.25 85:0.517778 86:0.457778 87:-0.0644444 88:-0.752222 89:-0.312222 90:-0.463333 91:0.0588235 92:-0.463333 93:0.414444 94:0.157895 95:0.414444 96:-1 97:-0.267778 98:-0.755556 99:-0.235556 100:-0.646295 101:0.701323 102:-0.4 
1 1:0.701323 2:-1 3:-0.876838 4:-1 5:-0.78765 6:-0.368421 7:1 8:0.0731831 9:-0.216485 10:0.621637 11:-0.78765 12:-0.395715 13:-0.188889 14:0.507876 15:-0.212222 16:0.125 17:-0.964444 18:-1 19:-1 20:-0.294444 21:-0.852222 22:1 23:0.367778 24:-0.19 25:-0.2 26:-0.773333 27:-0.302222 28:-0.302222 29:-0.96061 30:-0.38 31:-1 32:-0.404444 33:-0.198889 34:-0.3 35:0.717778 36:0.353333 37:0.212006 38:-0.517778 39:-1 40:1 41:-0.705556 42:1 43:-0.646667 44:-0.0526316 45:-0.528889 46:0.0130374 47:0.587629 48:-1 49:0.172222 50:0.353333 51:0.172222 52:-1 53:0.0250732 54:-0.0344444 55:-0.172222 56:1 57:1 58:1 59:0.717778 60:-0.316667 61:0.157895 62:-0.562689 63:-0.568008 64:-0.255556 65:-0.388889 66:-0.309293 67:0.403333 68:0.1 69:0.403333 70:-0.55238 71:0.752222 72:-0.374444 73:-0.562475 74:-0.541092 75:-0.521932 76:-0.5594 77:-0.611547 78:-0.236667 79:-0.604444 80:-1 81:0.457778 82:-0.707778 83:-0.257778 84:0.125 85:-0.312222 86:-0.0644444 87:-0.752222 88:0.457778 89:-1 90:0.414444 91:-0.176471 92:-1 93:-0.463333 94:-0.263158 95:-0.267778 96:-1 97:-0.755556 98:0.414444 99:-0.235556 100:0.822607 101:-0.52615 102:0.4 
1 1:0.507876 2:-0.354944 3:-0.96061 4:-1 5:-0.78765 6:-0.368421 7:1 8:0.55021 9:-1 10:0.304854 11:-0.52615 12:-0.297417 13:-0.964444 14:-0.996219 15:-0.198889 16:0.125 17:-1 18:-0.212222 19:-1 20:-0.0833333 21:0.367778 22:1 23:-0.38 24:-0.773333 25:-0.333333 26:-0.852222 27:-0.188889 28:-0.302222 29:0.0130374 30:-0.404444 31:-1 32:-0.748889 33:-0.294444 35:0.717778 36:-0.528889 37:0.0108167 38:-0.447778 39:-0.235556 40:-1 41:1 42:1 43:-0.705556 44:-0.157895 45:-0.646667 46:-0.309293 47:-0.718977 48:-1 49:0.172222 50:0.353333 51:1 52:-0.517778 53:0.587629 54:-1 55:-0.0344444 56:-0.172222 57:1 58:1 59:-0.19 60:-1 61:-0.0526316 62:-0.567921 63:-0.55493 64:-0.236667 65:-0.255556 66:0.761997 67:-0.388889 68:0.1 69:0.403333 70:-0.562645 71:-1 72:-0.236667 73:-0.548524 74:-0.52198 75:-0.559356 76:-0.611508 77:-0.66727 78:0.752222 79:-0.27 80:-0.374444 81:0.457778 82:-0.365556 83:-1 84:-0.125 85:-0.257778 86:-0.312222 87:-0.0644444 88:-0.752222 89:-0.604444 90:0.414444 91:0.0588235 92:-0.707778 93:-0.316667 94:-0.263158 95:-0.463333 96:-1 97:-0.267778 98:-0.755556 99:-0.587778 100:0.716063 101:0.701323 102:0.3 
1 1:-0.52615 2:0.483955 3:-0.457975 4:-1 5:-0.996219 6:-0.263158 7:-1 8:0.0731831 9:0.00863333 10:-0.309293 11:-0.996219 12:-0.934468 13:-0.206667 14:-0.173913 15:-0.212222 16:0.25 17:-0.188889 18:-0.32 19:-1 20:-0.212222 21:-0.221111 22:-1 23:0.367778 24:0.724444 25:-0.2 26:-0.19 27:-0.212222 28:-0.212222 29:-0.876838 30:0.724444 31:-1 32:0.367778 33:-0.206667 34:-0.1 35:0.367778 36:1 37:1 38:-0.0344444 39:0.764444 40:1 41:0.235556 42:-1 43:-0.528889 44:-0.157895 45:0.764444 46:0.0263523 47:0.0250732 48:-1 49:-0.0344444 50:1 51:-0.0344444 52:0.172222 53:0.754105 54:-0.0344444 55:-0.447778 56:1 57:0.172222 58:-1 59:0.367778 60:-0.316667 61:-0.0526316 62:-0.909439 63:-0.91328 64:-0.388889 65:1 66:-0.309293 67:0.752222 68:-0.1 69:0.752222 70:-0.905807 71:0.752222 72:0.752222 73:-0.929236 74:-0.920732 75:-0.920121 76:-0.923549 77:-0.926373 78:0.446667 79:-0.257778 80:1 81:-0.257778 82:-0.316667 83:-0.257778 84:0.25 85:-0.356667 86:-0.752222 87:-0.01 88:-0.257778 89:-0.01 90:-0.316667 91:0.176471 92:-0.0733333 93:-0.463333 94:-0.0526316 95:-0.755556 96:-1 97:-0.0733333 98:-0.316667 99:1 100:0.822607 101:-0.934468 102:-0.1 
1 1:-0.173913 2:-0.354944 3:-0.876838 4:-1 5:-0.996219 6:-0.157895 7:-1 8:0.754105 9:0.483955 10:-0.457975 11:-0.934468 12:-0.996219 13:-0.188889 14:-0.996219 15:-0.206667 17:-0.32 18:-0.212222 19:-1 20:-0.206667 21:0.367778 22:-1 23:0.724444 24:-0.19 25:0.0666667 26:-0.221111 27:-0.206667 28:-0.212222 29:0.0263523 30:0.367778 31:-1 32:0.724444 33:-0.212222 34:-0.1 35:0.367778 36:0.764444 37:0.641969 38:0.172222 39:1 40:0.764444 41:1 42:-1 43:0.235556 44:-0.157895 45:-0.528889 46:-0.309293 47:0.774978 48:-1 49:-0.0344444 50:1 51:0.172222 52:-0.0344444 53:0.0250732 54:0.172222 55:-0.0344444 56:-0.447778 57:1 58:-1 59:0.724444 60:-0.0733333 61:-0.157895 62:-0.913262 63:-0.91992 64:0.446667 65:-0.388889 66:-0.457975 67:1 68:-0.1 69:0.752222 70:-0.909429 71:1 72:1 73:-0.930044 74:-0.920129 75:-0.923541 76:-0.926366 77:-0.927781 78:0.752222 79:-0.01 80:0.752222 81:-0.257778 82:-0.0733333 83:-0.01 85:-0.257778 86:-0.356667 87:-0.752222 88:-0.01 89:-0.257778 90:-0.316667 91:0.294118 92:-0.316667 93:-0.316667 94:-0.0526316 95:-0.463333 96:-1 97:-0.755556 98:-0.0733333 99:0.764444 100:0.36344 101:-0.52615 102:-0.1 
1 1:-0.173913 2:-0.240919 3:-0.457975 4:-1 5:-0.934468 6:-0.157895 7:-1 8:0.0731831 9:0.483955 10:-0.70208 11:-0.996219 12:-0.571519 13:-0.206667 14:-0.795841 15:-0.212222 17:-0.32 18:-0.206667 19:-1 20:-0.206667 21:0.662222 22:-1 23:0.367778 24:0.724444 25:0.0666667 26:-0.221111 27:-0.212222 28:-0.206667 29:0.0263523 30:0.374444 31:-1 32:0.662222 33:-0.291111 35:0.724444 36:1 37:0.641969 38:0.793333 39:-0.00111111 40:1 41:-0.0588889 42:-1 43:0.235556 44:-0.157895 45:0.764444 46:-0.70208 47:0.774978 48:-1 49:0.172222 50:0.764444 51:-0.0344444 52:0.724444 53:0.754105 54:-0.0344444 55:0.793333 56:-0.447778 57:0.172222 58:-1 59:0.367778 60:-0.316667 61:-0.157895 62:-0.926343 63:-0.927767 64:0.446667 65:1 66:-0.309293 67:0.752222 68:-0.1 69:1 70:-0.923518 71:0.752222 72:0.236667 73:-0.938132 74:-0.928579 75:-0.922535 76:-0.914898 77:-0.904446 78:0.236667 79:-0.01 80:0.122222 81:-0.01 82:-0.0733333 83:-0.257778 85:-0.01 86:-0.356667 87:-0.01 88:-0.257778 89:0.0966667 90:-0.0733333 91:0.294118 92:0.0733333 93:-0.0733333 94:-0.0526316 95:-0.463333 96:-1 97:-0.0733333 98:-0.316667 99:-0.0588889 100:0.822607 101:-0.934468 102:0.2 
1 1:-0.571519 2:-0.240919 3:-0.309293 4:-1 5:-0.173913 6:-0.157895 7:-1 8:0.347334 9:0.451051 10:-0.465742 11:-0.795841 12:1 13:-0.212222 14:-0.795841 15:0.807778 16:-0.125 17:-0.291111 18:-0.206667 19:-1 20:0.807778 21:0.662222 22:-1 23:-0.987778 24:0.367778 25:0.2 26:0.374444 27:-0.206667 28:-0.32 29:-1 30:-0.987778 31:-1 32:-0.987778 33:0.807778 34:-0.2 35:-0.221111 36:-0.0588889 37:-0.392645 38:0.31 39:-0.294444 40:-0.294444 41:-0.0588889 42:-1 43:-0.00111111 44:-0.157895 45:1 46:-0.70208 47:0.776505 48:-1 49:-0.447778 50:0.235556 51:0.793333 52:0.31 53:0.0731831 54:0.31 55:0.793333 56:0.724444 57:-0.0344444 58:-1 59:0.662222 60:0.0733333 61:-0.157895 62:-0.928557 63:-0.922535 64:0.122222 65:0.752222 66:-0.465742 67:0.236667 68:-0.2 69:0.446667 70:-0.928751 71:-0.0977778 72:-0.0977778 73:-0.924181 74:-0.904436 75:-0.885915 76:-0.847903 77:-0.793402 78:0.236667 79:0.181111 80:-0.0977778 81:-0.356667 82:0.0733333 83:0.181111 85:-0.01 86:0.0966667 87:-0.257778 88:-0.01 89:0.181111 90:-0.463333 91:0.176471 92:0.0733333 93:-0.0733333 94:0.157895 95:0.0733333 96:-1 97:-0.316667 98:-0.0733333 99:-0.294444 100:0.00108167 101:-0.996219 102:-0.1 
1 1:-0.795841 2:0.593093 3:-1 4:-1 5:-0.795841 6:-0.263158 7:-1 8:0.347334 9:-0.240919 10:-0.253814 11:-0.996219 12:1 13:-0.291111 14:1 15:0.807778 16:-0.125 17:-0.206667 18:0.807778 19:-1 20:-0.306667 21:-0.987778 22:-1 23:-0.987778 24:0.374444 25:0.0666667 26:0.662222 27:-0.212222 28:-0.206667 29:-0.70208 30:-0.987778 31:-1 32:-0.515556 33:0.807778 34:-0.3 35:0.662222 36:1 37:0.835587 38:0.586667 39:-0.294444 40:-0.294444 41:-0.294444 42:-1 43:-0.0588889 44:-0.157895 45:-0.00111111 46:-0.465742 47:-0.171439 48:-1 49:0.793333 50:-0.0588889 51:-0.0344444 52:0.31 53:0.776505 54:0.31 55:0.31 56:0.793333 57:0.724444 58:-1 59:0.367778 60:0.0733333 61:-0.157895 62:-0.92252 63:-0.914889 64:0.236667 65:0.122222 66:-0.465742 67:0.752222 68:-0.2 69:0.236667 70:-0.92855 71:-0.0977778 72:-0.255556 73:-0.913668 74:-0.885927 75:-0.847887 76:-0.793381 77:-0.751961 78:-0.0977778 79:-0.0222222 80:-0.0977778 81:-0.01 82:-0.122222 83:0.181111 84:-0.125 85:0.181111 86:-0.01 87:0.0966667 88:-0.257778 89:0.181111 90:-0.0733333 91:-0.176471 92:0.0733333 93:0.0733333 94:-0.157895 95:-0.0733333 96:-1 97:0.0733333 98:-0.316667 99:-0.412222 100:0.00108167 101:-0.571519 
1 1:0.507876 2:0.00863333 3:-0.309293 4:-1 5:-0.996219 6:-0.473684 7:1 8:0.0250732 9:-1 10:0.0263523 11:0.701323 12:-0.996219 13:-0.212222 14:-0.52615 15:-0.188889 16:0.25 17:-1 18:-0.188889 19:-1 20:-0.32 21:-0.19 22:-1 23:-0.19 24:0.367778 25:-0.466667 26:-0.852222 27:-0.964444 28:-0.212222 29:0.0130374 30:0.367778 31:-1 32:-0.221111 33:-0.212222 34:-0.3 35:0.367778 36:-0.646667 37:0.0108167 38:-0.447778 39:1 40:-0.528889 41:-0.528889 42:1 43:-0.705556 44:-0.157895 45:1 46:-0.876838 47:-0.718977 48:-1 49:-0.0344444 50:1 51:1 52:-0.0344444 53:0.0731831 54:1 55:1 56:-0.172222 57:-0.0344444 58:1 59:-0.773333 60:-0.755556 61:-0.157895 62:-0.907024 63:-0.901207 64:-0.236667 65:0.752222 66:-0.876838 67:-0.255556 69:0.752222 70:-0.907215 71:-0.388889 72:0.446667 73:-0.892034 74:-0.84911 75:-0.808652 76:-0.762197 77:-0.773889 78:-0.388889 79:-0.356667 80:0.752222 81:-0.257778 82:-0.463333 83:-0.752222 84:-0.125 85:-0.752222 86:-0.312222 87:-0.257778 88:-0.0644444 89:-0.257778 90:-0.316667 91:-0.176471 92:-0.316667 93:-0.755556 94:-0.368421 95:-0.463333 96:1 97:-0.316667 98:-0.267778 99:0.235556 100:1 101:-0.996219 102:-0.2 
1 1:-0.78765 2:-0.216485 3:-0.481831 4:-1 5:0.0100819 6:0.578947 7:-1 8:-0.553265 9:0.190422 10:-0.253814 11:1 12:-0.571519 13:-0.302222 14:0.701323 15:-0.306667 16:-0.25 17:-0.302222 18:-0.964444 19:-1 20:-0.306667 21:-0.773333 22:-1 23:-0.515556 24:0.717778 25:0.333333 26:0.717778 27:0.807778 28:-0.304444 29:-0.481831 30:0.374444 31:-1 32:-0.515556 33:-0.291111 34:-0.4 35:0.208889 36:-0.294444 37:-0.0638183 38:0.586667 39:-0.00111111 40:-0.412222 41:-0.646667 42:-1 43:0.353333 44:-0.368421 45:0.353333 46:-0.96061 47:0.693013 48:-1 49:-0.172222 50:0.528889 51:0.31 52:0.724444 53:0.693013 54:0.586667 55:1 56:0.172222 57:0.172222 58:-1 59:-0.987778 60:-0.122222 61:0.0526316 62:-0.619038 63:-0.574044 64:0.403333 65:0.403333 66:-0.253814 67:-0.0977778 68:-0.4 69:0.403333 70:-0.590822 71:-0.255556 72:-0.255556 73:-0.571371 74:-0.521577 75:-0.399195 76:-0.233276 77:-0.0388252 78:-0.255556 79:-0.0222222 80:0.122222 81:0.601111 82:-0.122222 83:-0.0222222 84:-0.25 85:-0.0644444 86:0.457778 87:0.457778 88:0.181111 89:0.0966667 90:0.463333 91:-0.294118 92:0.0733333 93:-0.267778 94:0.0526316 95:0.414444 96:-1 97:0.414444 98:0.0733333 99:-0.412222 100:-0.121147 101:-0.78765 102:0.2 
1 1:0.432892 2:0.451051 3:-0.96061 4:-1 5:-0.78765 6:-0.368421 7:-1 8:-0.553265 9:-0.547483 10:-0.154508 11:-0.78765 12:0.441714 13:-0.964444 14:-0.571519 15:-0.306667 16:0.125 17:-0.306667 18:-0.291111 19:-1 21:0.374444 22:-1 23:-0.515556 24:-0.773333 25:-0.333333 26:-0.515556 27:-0.302222 28:-0.302222 29:-0.253814 30:-0.748889 31:-1 33:-0.0833333 35:0.717778 36:0.353333 37:-0.121147 39:-0.587778 40:-0.412222 41:-0.00111111 42:1 43:-0.412222 44:0.473684 45:-0.646667 46:-1 47:-0.553265 48:-1 49:0.172222 50:0.353333 51:0.172222 52:-0.447778 53:0.587629 54:0.586667 55:0.724444 56:0.586667 57:1 58:-1 59:0.717778 60:-0.122222 61:-0.157895 62:-0.563695 63:-0.521529 64:-0.255556 65:-0.255556 66:-0.253814 67:0.403333 69:0.403333 70:-0.573916 71:-0.255556 73:-0.405985 74:-0.233276 75:-0.0386318 76:0.00412433 77:-1 78:0.122222 80:-0.236667 81:0.457778 83:-0.0222222 85:0.0966667 86:-0.0222222 87:-0.0644444 88:0.457778 89:-0.27 90:0.414444 91:0.411765 92:-0.365556 93:0.0733333 94:-0.263158 95:-0.122222 96:-1 97:-0.267778 98:0.414444 100:-0.121147 101:0.701323 102:0.6 
1 1:-0.795841 2:-0.806157 3:0.761997 4:-1 5:-0.52615 6:-0.263158 7:-1 8:0.0731831 9:-0.240919 10:0.0130374 11:-0.934468 12:-0.52615 13:-0.198889 14:-0.297417 15:-0.212222 17:-0.206667 18:-0.294444 19:-1 20:-1 21:-0.404444 22:-1 23:0.367778 24:-0.38 25:0.733333 26:0.662222 27:-0.206667 28:-0.188889 29:-0.70208 30:-0.19 31:-1 32:-0.852222 33:-0.188889 34:-0.6 35:-0.19 36:0.764444 37:0.835587 38:-0.172222 39:-0.528889 40:1 41:-0.235556 42:-1 43:-0.0588889 44:-0.368421 45:-1 46:0.621637 47:-0.171439 48:-1 49:1 50:-0.528889 51:0.172222 52:1 53:0.55021 54:-0.0344444 55:-0.517778 56:0.793333 57:-1 58:-1 59:0.724444 60:-0.316667 61:-0.263158 62:-0.971825 63:-0.973038 64:0.236667 65:-1 66:-0.309293 67:1 68:-0.3 69:-0.388889 70:-0.965986 71:0.752222 72:-0.236667 73:-0.986049 74:-0.977467 75:-0.979276 76:-0.979278 77:-0.980084 78:-0.374444 79:-0.312222 80:-0.388889 81:-0.752222 82:-0.463333 83:-0.257778 85:-0.604444 86:-0.01 87:-1 88:-0.01 89:-0.752222 90:-0.755556 91:-0.411765 92:-0.755556 93:-0.707778 94:0.0526316 95:-0.0733333 96:-1 97:-1 98:-0.0733333 99:-0.705556 100:0.822607 101:-0.395715 102:-0.6 
1 1:-0.795841 2:0.00863333 3:0.0130374 4:-1 5:-0.996219 6:-0.368421 7:-1 8:0.587629 9:-0.240919 10:-0.457975 11:-0.52615 12:-0.297417 13:-1 14:-0.52615 15:-0.964444 16:-0.375 17:-0.206667 18:-0.188889 19:-1 20:-0.206667 21:-0.19 22:-1 23:-0.773333 24:-0.852222 25:0.6 26:0.662222 27:-0.188889 28:-0.212222 29:-0.70208 30:-0.404444 31:-1 32:0.724444 33:-0.294444 34:-0.4 35:0.367778 36:-0.528889 37:0.835587 38:0.172222 39:-0.235556 40:-0.646667 41:-0.528889 42:-1 43:-0.0588889 44:-0.684211 45:-0.705556 46:-0.876838 47:-0.171439 48:-1 49:-0.0344444 50:1 51:1 52:-0.517778 53:-0.718977 54:1 55:1 56:0.793333 57:-0.172222 58:-1 59:-0.19 60:-0.267778 61:-0.368421 62:-0.979271 63:-0.98008 64:0.236667 65:-0.236667 66:-0.96061 67:-0.388889 68:-0.7 69:0.752222 70:-0.979269 71:-0.255556 72:1 73:-0.990093 74:-0.979881 75:-0.978672 76:-0.977668 77:-0.97586 78:-0.388889 79:-0.01 80:-0.374444 81:-0.257778 82:-0.0733333 83:-0.0644444 84:-0.5 85:-0.752222 86:-0.01 87:-0.312222 88:-0.752222 89:-0.604444 90:-0.316667 91:0.0588235 92:-0.707778 93:-0.755556 94:0.684211 95:-0.0733333 96:-1 97:-0.463333 98:-0.755556 99:0.764444 100:0.212006 101:0.507876 102:-0.3 
1 1:-0.173913 2:-0.216485 3:-0.309293 4:-1 5:-0.795841 6:-0.263158 7:-1 8:0.0250732 9:0.483955 10:-0.465742 11:-0.571519 12:-0.795841 13:-0.212222 14:0.701323 15:-0.188889 16:0.125 17:-0.32 18:-0.964444 19:-1 20:0.807778 21:-0.773333 22:-1 23:-0.19 24:0.367778 25:-0.333333 26:-0.221111 27:-0.291111 28:-0.206667 29:0.0263523 30:0.662222 31:-1 32:-0.987778 33:-0.206667 34:-0.5 35:0.662222 36:-0.00111111 37:0.641969 38:0.31 39:-0.0588889 40:-0.528889 41:-0.646667 42:-1 43:0.235556 44:-0.368421 45:1 46:-0.96061 47:0.774978 48:-1 49:0.793333 50:-0.0588889 51:0.724444 52:0.793333 53:0.0731831 54:1 55:1 56:-0.447778 57:-0.0344444 58:-1 59:0.374444 60:-0.755556 61:-0.157895 62:-0.970618 63:-0.973038 64:0.446667 65:0.752222 66:-0.876838 67:0.122222 68:-0.3 69:0.236667 70:-0.965784 71:-0.388889 72:-0.0977778 73:-0.983017 74:-0.97284 75:-0.972032 76:-0.96942 77:-0.965399 78:-0.255556 79:0.181111 80:0.236667 81:-0.01 82:0.0733333 83:-0.752222 85:-0.0644444 86:-0.356667 87:-0.257778 88:0.0966667 89:-0.01 90:-0.0733333 91:0.0588235 92:-0.0733333 93:-0.267778 94:-0.0526316 95:-0.463333 96:-1 97:-0.316667 98:0.0733333 99:-0.294444 100:1 101:-0.996219 102:-0.2 
1 1:0.701323 2:0.00863333 3:0.0263523 4:-1 5:-0.571519 6:-0.578947 7:-1 8:-0.171439 9:-0.216485 10:1 11:-0.996219 12:1 13:-0.32 14:-0.52615 15:-0.206667 16:-0.125 17:-0.964444 18:-0.188889 19:-1 20:-0.0111111 21:-0.19 22:-1 23:0.662222 24:-0.221111 25:-0.0666667 26:-0.773333 27:-0.212222 28:-0.291111 29:-0.96061 30:-0.987778 31:-1 32:0.0611111 33:0.807778 34:-0.5 35:0.374444 36:1 37:0.212006 38:-1 39:-0.294444 40:-0.0588889 41:-0.528889 42:-1 43:-0.646667 44:0.157895 45:0.235556 46:-0.876838 47:0.587629 48:-1 49:0.724444 50:-0.00111111 51:-0.0344444 52:0.31 53:0.774978 54:0.793333 55:1 56:1 57:-0.447778 58:-1 59:0.367778 60:-0.0733333 61:-0.473684 62:-0.973033 63:-0.973441 64:-0.255556 65:0.446667 66:-0.70208 67:0.752222 68:-0.2 69:0.122222 70:-0.970615 71:0.236667 72:0.274444 73:-0.98241 74:-0.972035 75:-0.969416 76:-0.965396 77:-0.961577 78:-0.388889 79:-0.326667 80:-0.0977778 81:0.0966667 82:-1 83:-0.01 84:-0.25 85:-0.752222 86:-0.0644444 87:-0.356667 88:-0.257778 89:0.181111 90:0.0733333 91:-0.411765 92:0.0733333 93:-0.755556 94:-0.368421 95:-0.267778 96:-1 97:-0.463333 98:-0.316667 99:0.117778 100:0.835587 101:-0.173913 102:-0.4 
1 1:0.0100819 2:0.190422 3:-0.876838 4:-1 5:-0.78765 6:0.157895 7:-1 8:-0.553265 9:0.548786 10:0.761997 11:-0.52615 12:0.432892 13:-0.188889 14:-0.78765 15:-0.306667 16:-0.5 17:-0.304444 18:-0.302222 19:-1 20:-0.198889 21:0.717778 22:-1 23:-0.515556 24:-0.19 25:-0.466667 26:0.208889 27:-0.188889 28:-0.302222 29:0.305964 30:-0.515556 31:-1 32:-0.38 33:-0.306667 34:0.5 35:0.717778 36:-0.528889 37:-0.302326 38:-1 39:-0.412222 40:-0.412222 41:0.353333 42:-1 43:0.528889 44:-0.578947 45:-0.528889 46:-0.481831 47:1 48:-1 49:0.172222 50:0.353333 51:1 52:0.586667 53:0.0250732 54:0.586667 55:0.172222 56:-0.172222 57:1 58:-1 59:-0.19 60:-0.122222 61:-0.473684 62:-0.93218 63:-0.925553 64:0.403333 65:-0.388889 66:-0.253814 67:-0.388889 68:-0.5 69:0.403333 70:-0.943645 71:-0.255556 72:-1 73:-0.940356 74:-0.92536 75:-0.910262 76:-0.885726 77:-0.859384 78:0.403333 79:-1 80:-0.255556 81:0.457778 82:-1 83:-0.0222222 84:-0.5 85:0.457778 86:0.601111 87:-0.752222 88:-0.752222 89:-0.0222222 90:0.414444 91:0.764706 92:-0.122222 93:0.414444 94:-0.473684 95:0.463333 96:-1 97:-0.755556 98:-0.755556 99:-1 100:-0.121147 101:-0.52615 102:0.8 
1 1:-0.795841 2:0.00863333 3:-0.481831 4:-1 5:-0.52615 6:0.684211 7:-1 8:-0.553265 9:-0.240919 10:-0.96061 11:0.441714 12:-0.173913 13:-0.302222 14:-0.52615 15:-0.306667 16:-0.5 17:-0.206667 18:-0.188889 19:-1 20:-0.964444 21:-0.19 22:-1 23:-0.515556 24:0.717778 25:0.6 26:0.662222 27:-0.0833333 28:-0.188889 29:-0.70208 30:-0.221111 31:-1 32:-0.773333 33:-0.32 34:-0.5 35:-0.19 36:-0.587778 37:0.835587 38:1 39:0.235556 40:-0.412222 41:-0.528889 42:-1 43:-0.0588889 44:-0.578947 45:0.353333 46:-0.876838 47:-0.171439 48:-1 49:1 50:-0.528889 51:-0.447778 52:-0.447778 53:0.693013 54:0.586667 55:1 56:0.793333 57:0.172222 58:-1 59:-0.748889 60:-0.122222 61:-0.368421 62:-0.97102 63:-0.971831 64:0.236667 65:0.403333 66:-0.253814 67:-0.236667 68:-0.6 69:-0.388889 70:-0.9682 71:-0.255556 72:-0.255556 73:-0.981197 74:-0.970023 75:-0.969618 76:-0.965597 77:-0.962382 78:-0.388889 79:-0.0644444 80:0.446667 81:-0.752222 82:-0.267778 83:-0.0222222 84:-0.375 85:-0.752222 86:-0.01 87:0.457778 88:-0.27 89:-0.356667 90:-0.755556 91:-0.411765 92:-0.463333 93:-0.755556 94:0.0526316 95:-0.0733333 96:-1 97:0.414444 98:-0.365556 99:-0.646667 100:-0.121147 101:-0.78765 102:-0.5 
1 1:0.432892 2:0.483955 3:-0.876838 4:-1 5:-0.78765 6:-0.789474 7:-1 8:0.587629 9:-0.547483 10:-0.70208 11:-0.795841 12:-0.52615 13:-0.188889 14:-0.173913 15:-0.964444 16:-0.375 17:-0.306667 18:-0.32 19:-1 20:-0.206667 21:-0.221111 22:-1 23:-0.773333 24:-0.19 25:-0.733333 26:-0.515556 27:-0.206667 28:-0.302222 29:-0.253814 30:-0.19 31:-1 32:0.662222 33:-0.188889 34:-0.5 35:0.717778 36:-0.0588889 37:-0.121147 38:0.793333 39:-0.528889 40:-0.646667 41:0.235556 42:-1 43:-0.412222 44:0.894737 45:-0.528889 46:0.0263523 47:-0.553265 48:-1 49:0.172222 50:0.353333 51:0.793333 52:1 53:0.0250732 54:1 55:-0.447778 56:0.586667 57:1 58:-1 59:0.662222 60:-0.267778 61:-0.263158 62:-0.971624 63:-0.97002 64:-0.255556 65:-0.388889 66:-0.96061 67:0.236667 68:-0.4 69:0.403333 70:-0.971822 71:-0.255556 72:0.236667 73:-0.979175 74:-0.965597 75:-0.962374 76:-0.95755 77:-0.953128 78:0.446667 79:-0.01 80:-0.388889 81:0.457778 82:-0.0733333 83:-0.0644444 84:-0.5 85:-0.356667 86:-0.0222222 87:-0.752222 88:-0.01 89:-0.752222 90:0.414444 91:-0.294118 92:-0.755556 93:-0.463333 94:-0.684211 95:-0.122222 96:-1 97:-0.755556 98:-0.0733333 99:-0.0588889 100:0.212006 101:-0.52615 102:0.7 
1 1:-0.173913 2:-0.216485 3:-0.253814 4:-1 5:-0.795841 6:-0.578947 7:-1 8:0.0250732 9:0.483955 10:-1 11:-0.52615 12:-0.795841 13:-0.306667 14:0.701323 15:-0.188889 16:0.5 17:-0.32 18:-0.964444 19:-1 20:-0.291111 21:-0.773333 22:-1 23:-0.19 24:-0.515556 25:-0.466667 26:-0.221111 27:-0.188889 28:-0.206667 29:0.0263523 30:0.662222 31:-1 32:0.374444 33:-0.206667 34:-0.6 35:0.662222 36:-0.528889 37:0.641969 38:0.724444 39:-0.0588889 40:-0.528889 41:-0.646667 42:-1 43:0.235556 44:-0.368421 45:-0.412222 46:-0.96061 47:0.774978 48:-1 49:0.793333 50:-0.0588889 51:1 52:0.793333 53:-0.553265 54:1 55:1 56:-0.447778 57:0.586667 58:-1 59:-0.19 60:-0.755556 61:-0.157895 62:-0.970014 63:-0.969618 64:0.446667 65:-0.255556 66:-0.876838 67:-0.388889 68:-0.3 69:0.236667 70:-0.971621 71:-0.388889 72:0.122222 73:-0.975131 74:-0.962378 75:-0.957545 76:-0.953123 77:-0.940455 78:-0.255556 79:0.0966667 80:0.236667 81:-0.01 82:0.0733333 83:-0.752222 84:0.375 85:-0.0644444 86:-0.356667 87:-0.0222222 88:-0.752222 89:-0.01 90:-0.0733333 91:-0.411765 92:-0.0733333 93:-0.267778 94:-0.263158 95:-0.463333 96:-1 97:-0.122222 98:-0.755556 99:-0.00111111 100:1 101:0.432892 102:0.7 
